<?xml version="1.0"?>
<opencv_storage>
<my_svm type_id="opencv-ml-svm">
  <svm_type>C_SVC</svm_type>
  <kernel><type>POLY</type>
    <degree>5.0000000000000000e-001</degree>
    <gamma>1.</gamma>
    <coef0>0.</coef0></kernel>
  <C>7.</C>
  <term_criteria><epsilon>2.2204460492503131e-016</epsilon>
    <iterations>10000000</iterations></term_criteria>
  <var_all>7056</var_all>
  <var_count>7056</var_count>
  <class_count>4</class_count>
  <class_labels type_id="opencv-matrix">
    <rows>1</rows>
    <cols>4</cols>
    <dt>i</dt>
    <data>
      1 2 3 4</data></class_labels>
  <sv_total>12</sv_total>
  <support_vectors>
    <_>
      5.32918237e-003 3.38810519e-003 3.29311518e-003 2.60273740e-003
      2.03706301e-003 2.85461708e-003 1.00334489e-003 2.53273873e-003
      5.54126687e-003 9.04121064e-003 8.12970847e-003 8.15091562e-003
      2.16259714e-003 9.07069130e-004 1.11239334e-003 2.26659211e-003
      4.80946433e-003 1.38216820e-002 1.20573165e-002 9.35614854e-003
      4.67578089e-003 6.57761761e-004 1.80175574e-003 2.27945959e-004
      7.42011296e-004 1.07897422e-003 9.28793289e-003 1.88357495e-002
      6.43165875e-003 3.63338925e-003 1.16773462e-003 3.71715194e-003
      5.60263870e-004 1.06667867e-003 1.47996319e-003 1.64714623e-002
      3.16678807e-002 1.01929111e-002 6.63509825e-003 6.78852759e-003
      8.03363975e-003 9.50932852e-004 5.01143164e-004 6.71882706e-004
      1.67440735e-002 4.21178080e-002 1.56459119e-002 4.92918724e-003
      1.17254246e-003 1.49692176e-003 1.07415952e-004 5.64696529e-005
      1.88711620e-005 2.05883998e-002 2.24197935e-002 2.52903136e-003
      6.77896140e-004 3.94939038e-004 3.64827778e-004 0. 4.23521997e-005
      6.03883178e-004 1.82558838e-002 1.29385125e-002 7.07723992e-003
      6.24311902e-003 1.33865252e-002 2.11539865e-002 6.33814279e-003
      4.99342754e-003 7.13412138e-003 1.11820931e-002 6.38533533e-002
      2.60579903e-002 1.47380475e-002 7.51016615e-003 4.82384954e-003
      4.90396982e-003 7.72239221e-003 1.33339083e-002 3.73130850e-002
      2.69236621e-002 1.67019796e-002 1.36295557e-002 2.36924533e-002
      4.50447388e-002 1.47745693e-002 7.84454402e-003 1.30812097e-002
      2.15201564e-002 1.81586109e-002 2.96854507e-002 4.19544913e-002
      2.96237990e-002 1.27854673e-002 1.82046799e-003 2.95927911e-003
      3.77440406e-003 1.44083817e-002 1.47092044e-002 2.14872938e-002
      8.36206004e-002 8.50376859e-002 1.35264285e-002 1.20808545e-003
      2.89081392e-004 5.47995907e-004 6.15947274e-003 2.93557793e-002
      3.52969244e-002 2.96185557e-002 2.89387759e-002 5.48853585e-003
      4.40545962e-004 3.60029138e-004 3.61893064e-004 9.35403351e-003
      1.71754509e-002 8.30029324e-003 4.34230873e-003 2.59340648e-003
      2.18645390e-003 1.37768235e-004 1.12768053e-003 4.33518412e-003
      1.41275907e-002 3.16577684e-003 1.13044167e-003 5.95353963e-003
      4.44501638e-002 1.15241267e-001 6.50256407e-003 8.85883905e-003
      1.41001213e-002 4.49691340e-003 3.81505601e-002 2.55933031e-002
      3.23351547e-002 7.92215988e-002 7.07695261e-002 1.58088300e-002
      1.40682738e-002 1.88100506e-002 2.18147766e-002 4.77834232e-002
      4.64064293e-002 3.37803811e-002 5.81457242e-002 8.52856189e-002
      2.88362466e-002 1.79838371e-002 1.05025880e-002 1.98848490e-002
      1.73839889e-002 3.41297016e-002 7.93242455e-002 1.26087740e-001
      9.10924152e-002 1.66298579e-002 4.25709412e-003 3.81577364e-003
      1.05180992e-002 1.99194457e-002 4.95983250e-002 1.40643075e-001
      1.27013370e-001 3.17437686e-002 2.90201255e-003 1.52626587e-003
      1.89114932e-003 6.31162897e-003 2.98428535e-002 4.43928726e-002
      7.96629637e-002 6.73923716e-002 1.64193399e-002 2.08496116e-003
      1.16792088e-003 4.26210044e-003 9.29098204e-003 3.32829878e-002
      2.54607387e-002 2.09870879e-002 1.67916324e-002 1.15807392e-002
      9.43736453e-003 7.66741345e-003 1.02160191e-002 2.05894243e-002
      1.57693250e-003 3.69155616e-003 1.00057106e-002 3.82348821e-002
      2.18565658e-001 3.46370488e-002 7.29357218e-003 2.00243061e-003
      7.26030208e-004 6.42160373e-003 1.93602275e-002 4.69965674e-002
      1.65061384e-001 1.47619739e-001 4.66778502e-002 1.86387990e-002
      2.92850402e-003 1.07025704e-003 2.88504399e-002 3.84398550e-002
      2.25337725e-002 8.86886865e-002 8.72306973e-002 3.11624892e-002
      1.46763399e-002 1.58148054e-002 2.08430346e-002 2.06871470e-003
      2.72289990e-003 2.95460261e-002 1.17600575e-001 1.30731553e-001
      1.22197799e-001 6.29314035e-002 2.26860754e-002 4.29013185e-003
      7.29935069e-004 5.29763754e-003 3.00093908e-002 9.60119441e-002
      1.87741652e-001 8.33761543e-002 2.67101564e-002 4.79832990e-003
      2.01542163e-003 1.17615005e-002 1.91343259e-002 6.61114156e-002
      1.41074225e-001 1.16240025e-001 2.59263162e-002 1.05712200e-002
      1.19071268e-002 1.31268185e-002 1.77472848e-002 1.12139964e-002
      1.74260158e-002 4.87620309e-002 4.50088494e-002 2.08343416e-002
      7.71150505e-003 1.04892831e-002 2.41358578e-002 1.39623298e-003
      1.42108963e-003 4.57792450e-003 5.16763665e-002 1.85766324e-001
      2.61889398e-002 2.43098009e-003 2.61574081e-004 9.46049578e-004
      1.20767029e-002 1.26054417e-002 2.51290388e-002 1.56492725e-001
      1.31583542e-001 3.30010690e-002 1.39226811e-002 2.75655231e-003
      3.53655173e-003 3.37942429e-002 3.34614143e-002 2.13544946e-002
      5.41957989e-002 7.01101720e-002 2.11968403e-002 1.05116172e-002
      1.96867920e-002 1.58975441e-002 1.67466030e-002 1.31730894e-002
      5.87465474e-003 1.52888251e-002 7.58898482e-002 1.45254835e-001
      9.23635215e-002 3.36585939e-002 2.03448776e-002 0. 0.
      7.12329289e-004 4.19663824e-002 1.40206367e-001 2.17485711e-001
      1.21327601e-001 1.09121455e-002 1.03861571e-003 1.22213326e-002
      5.32723870e-003 6.95860684e-002 2.03983754e-001 1.75774738e-001
      5.48507683e-002 6.91800639e-002 6.73712492e-002 2.21201684e-002
      1.37729878e-002 5.15850820e-003 9.74386558e-003 1.79977249e-002
      3.14720124e-002 4.29149307e-002 6.58833385e-002 8.16133469e-002
      3.96161079e-002 5.31313592e-004 8.12809303e-005 8.51123536e-004
      2.74384972e-002 1.76171154e-001 2.32707635e-002 5.55046019e-004
      3.56169970e-004 5.84058929e-004 1.69194806e-002 1.30532961e-002
      2.14027986e-002 4.90082838e-002 1.30458131e-001 3.07807066e-002
      5.98143507e-003 3.03102401e-003 9.15193651e-003 2.82790922e-002
      3.27774100e-002 2.04401780e-002 1.92704182e-002 1.54290777e-002
      1.02440547e-002 1.76877212e-002 2.37751957e-002 2.17715017e-002
      1.97510868e-002 1.77316070e-002 8.97684600e-003 2.50942931e-002
      6.07800744e-002 3.38758156e-002 3.77585031e-002 2.66477969e-002
      2.26047020e-002 5.62194921e-003 7.79516203e-003 5.35237044e-003
      3.16203162e-002 1.52690157e-001 1.22251116e-001 7.59814307e-002
      2.69364696e-002 1.19345300e-002 6.35945937e-003 5.45472139e-003
      4.14311700e-003 7.36564472e-002 2.18565658e-001 9.80714634e-002
      4.41652350e-002 4.94675376e-002 1.56675465e-002 4.37372690e-003
      3.42275482e-003 2.10534921e-003 1.09581500e-002 3.05981208e-002
      1.72689967e-002 3.05057280e-002 4.46741842e-002 1.94259472e-002
      3.51624680e-004 2.21069622e-005 6.16469420e-004 1.26389759e-002
      6.94503859e-002 1.65720880e-002 1.33923627e-003 8.21008216e-005
      3.60415579e-004 1.15369831e-003 3.60723439e-004 1.59021991e-003
      1.68041307e-002 6.17809966e-002 2.56101321e-002 7.66217243e-003
      1.51164760e-003 1.06477307e-003 3.26423766e-003 2.39036023e-003
      2.35298905e-003 2.74722837e-003 1.63932629e-002 1.05135040e-002
      1.19712111e-002 5.60140703e-003 4.28273575e-003 1.02013825e-002
      1.38432113e-002 1.26461815e-002 2.38455851e-002 2.56068036e-002
      9.45152622e-003 1.48997363e-002 6.20014314e-003 5.43924561e-003
      1.78657491e-002 1.75163895e-002 1.23063540e-002 2.22823378e-002
      7.23920539e-002 2.54101008e-002 1.20970532e-002 1.23205809e-002
      9.67764854e-003 1.16276713e-002 1.45810051e-002 8.88059568e-003
      2.14154013e-002 9.82443169e-002 3.83394472e-002 1.58283245e-002
      2.63075046e-002 1.29673006e-002 2.47220858e-003 4.63805394e-003
      5.09232376e-003 1.28674889e-002 2.52838545e-002 9.83649399e-003
      5.06582670e-003 6.74291281e-003 2.80033075e-003 5.66901872e-003
      2.26329220e-003 1.64171599e-003 4.62110998e-004 2.39666994e-003
      4.07451298e-003 1.58039629e-002 1.07899895e-002 5.08471485e-003
      6.17273077e-002 1.07060038e-002 6.51961192e-003 3.52026802e-003
      5.79478825e-003 7.93023687e-003 7.37382332e-003 1.49662537e-003
      2.23282464e-002 9.67733115e-002 7.16924621e-003 3.82250501e-003
      7.86549586e-004 1.41492696e-003 7.64124488e-005 1.35784259e-003
      8.13585147e-003 9.33763310e-002 1.07356697e-001 2.93139624e-003
      9.24304652e-004 5.55083272e-004 4.49302979e-003 7.68705504e-004
      1.51517743e-003 2.65127397e-003 1.10155709e-001 9.09131840e-002
      8.89610848e-004 1.78979989e-003 1.71933160e-003 3.05138249e-003
      4.57019778e-004 1.29488797e-003 3.26775975e-004 9.43258926e-002
      5.98789118e-002 2.43767956e-003 1.77693553e-003 8.99461273e-004
      2.08280981e-003 6.31446368e-004 1.53829763e-003 7.60789146e-004
      5.77455536e-002 1.74360741e-002 1.63780246e-003 9.03069566e-004
      2.17414531e-003 2.45686760e-003 3.19332379e-004 1.54424808e-003
      2.92094937e-003 2.67547760e-002 1.54199416e-003 9.56619857e-004
      1.06051844e-003 2.77913921e-003 1.02577079e-002 2.45593991e-002
      4.21347842e-002 2.12904885e-002 5.65579021e-003 2.45915335e-002
      1.15078716e-002 8.82887468e-003 1.16880946e-002 2.19671335e-002
      1.70517012e-001 1.57285511e-001 4.54792567e-002 1.20118605e-002
      3.23275849e-002 1.26244146e-002 8.79904814e-003 8.40917882e-003
      7.41753541e-003 3.45176831e-002 5.83943315e-002 3.83797996e-002
      4.53277528e-002 2.62664072e-002 9.73498542e-003 8.99772998e-003
      1.67157128e-002 4.89915870e-002 3.36934291e-002 2.56572906e-002
      1.28366658e-002 2.99599599e-002 2.20660232e-002 1.17687425e-002
      2.73853242e-002 2.57532522e-002 3.06178853e-002 5.34925889e-003
      5.20049222e-003 1.53235253e-003 2.24601962e-002 1.39890173e-002
      5.34510519e-003 1.02711571e-002 1.15105007e-002 2.31667720e-002
      8.30033701e-003 7.09998608e-003 2.80567049e-003 1.38868783e-002
      4.87054978e-003 5.16527705e-003 6.70435792e-003 9.86715127e-003
      9.91285592e-003 2.96518626e-003 3.58864223e-003 3.56796524e-003
      7.48149725e-003 9.35825461e-004 5.81389177e-004 1.38597318e-003
      9.55098588e-003 3.27592939e-002 2.63163392e-002 9.16213542e-003
      2.74273427e-003 1.15240121e-003 4.10452066e-003 1.21855317e-003
      1.61316525e-003 6.08507544e-003 2.02334020e-002 1.87958702e-001
      2.49586105e-001 1.04185283e-001 1.09834364e-002 2.12684087e-002
      1.87163986e-002 1.11364424e-002 1.15699247e-002 1.80776063e-002
      1.89227238e-001 2.49586105e-001 2.49586105e-001 1.05118074e-001
      2.66006216e-002 2.40653269e-002 3.98838669e-002 4.54108603e-002
      1.08764045e-001 1.20451301e-001 8.84078220e-002 5.82611784e-002
      4.91054654e-002 4.68515418e-003 2.70007905e-002 5.49117513e-002
      7.21009448e-002 5.47732376e-002 4.23616469e-002 1.16138393e-002
      1.32921552e-002 5.30520035e-003 2.05037021e-003 1.21204443e-002
      3.71571630e-002 6.81411251e-002 2.62769349e-002 6.12135744e-003
      3.12708924e-003 2.78311991e-003 2.91055115e-003 1.30148767e-003
      6.04926003e-003 1.67443082e-002 1.64855719e-002 1.23894326e-002
      2.52997549e-003 3.21567943e-003 1.24629028e-003 1.11405400e-003
      5.42151369e-003 1.45672075e-002 1.49926944e-002 2.43055187e-002
      1.79484356e-002 5.88209368e-003 3.77076422e-003 6.30053785e-003
      3.90483672e-003 8.30803253e-003 1.41116967e-002 1.76768340e-002
      1.74967907e-002 4.02460173e-002 4.55501340e-002 3.18704993e-002
      2.16609798e-002 1.29176443e-002 9.26013850e-003 1.88356396e-002
      2.53596473e-002 5.73023483e-002 1.10115372e-001 1.01634040e-001
      2.49586105e-001 2.49586105e-001 9.45165306e-002 3.03815193e-002
      1.34345619e-002 2.89890021e-002 2.91831214e-002 3.88726741e-002
      8.83807987e-002 2.49586105e-001 2.49586105e-001 1.55524001e-001
      4.30104323e-002 4.52971645e-002 4.20848355e-002 5.35228066e-002
      1.86255537e-002 2.72199791e-002 7.82610700e-002 1.46834150e-001
      6.37742206e-002 2.98637152e-002 2.70307474e-002 4.37557474e-002
      6.80415779e-002 1.87052544e-002 2.59436853e-003 4.58589289e-003
      6.58306479e-003 1.41081503e-002 6.81757554e-003 8.01570993e-003
      5.45287924e-003 1.03684813e-002 9.11045726e-003 2.07597832e-003
      4.17111674e-003 4.06936230e-003 4.55594296e-003 6.01077545e-003
      6.17810059e-003 7.52132339e-003 2.86875535e-002 2.90100407e-002
      1.19815050e-002 1.01845339e-002 1.13918856e-002 6.08977303e-003
      1.04760202e-002 1.34595381e-002 2.35564746e-002 1.32192876e-002
      1.78159885e-002 9.65892710e-003 2.02174485e-002 2.40491778e-002
      1.99141428e-002 1.00958142e-002 3.09059806e-002 4.93293554e-002
      6.88833222e-002 9.12904739e-002 4.06864844e-002 2.64900122e-002
      1.31121427e-002 2.29874090e-003 3.24438955e-003 8.72812700e-003
      2.17351019e-002 4.54494059e-002 7.32998550e-002 8.38429183e-002
      8.66811872e-002 8.35973546e-002 2.12368537e-002 4.34342735e-002
      2.40003299e-002 8.43373127e-003 8.40540044e-003 2.73559988e-002
      3.07448227e-002 7.63088912e-002 1.09394178e-001 6.21315204e-002
      2.80825235e-002 1.63873099e-002 7.33892480e-003 9.18108784e-003
      1.94557533e-002 2.06099078e-002 2.38650460e-002 2.21323725e-002
      2.14216802e-002 5.12336474e-003 5.68004232e-003 2.70452141e-003
      6.54776860e-003 1.96319763e-002 1.42053161e-002 5.18034445e-003
      5.95580274e-003 4.44583362e-003 1.82683766e-003 1.49704108e-003
      1.21046593e-002 2.37345994e-002 4.59804088e-002 1.58493631e-002
      3.09965853e-003 2.86490307e-003 1.61752000e-003 1.80229126e-003
      3.70502216e-003 1.44008463e-002 2.69931722e-002 2.09872425e-002
      4.61855065e-003 5.91712538e-003 3.83958989e-003 2.18123966e-003
      1.30693968e-002 2.96865795e-002 3.68044265e-002 4.80235219e-002
      8.11946616e-002 1.08991824e-002 2.40895315e-003 1.94709178e-003
      4.37379209e-003 1.48589872e-002 2.30872240e-002 1.83942337e-002
      1.29991872e-002 2.72512492e-002 1.68887284e-002 1.55011313e-002
      2.01607160e-002 1.83925908e-002 1.58863310e-002 2.04426721e-002
      1.35120461e-002 1.91688444e-002 4.53801230e-002 1.68106556e-002
      1.16008483e-002 9.92003735e-003 8.86992551e-003 8.00412428e-003
      1.26111526e-002 1.31806964e-002 1.25514744e-002 2.47654598e-002
      1.11665800e-002 6.58853166e-003 7.28635769e-003 6.63962867e-003
      1.77171268e-003 4.73150797e-003 6.66856533e-003 4.91084531e-003
      1.35352360e-002 7.59172346e-003 1.71966432e-003 1.89177040e-003
      1.59593555e-003 8.20501999e-004 1.13249803e-003 6.70547970e-003
      1.22460984e-002 1.13989245e-002 3.52080399e-003 1.93017721e-003
      2.10086256e-003 1.44264661e-003 1.80768908e-003 1.57285319e-003
      6.15811441e-003 9.61481035e-003 6.91542123e-003 1.25354622e-003
      1.65500038e-003 2.54752045e-003 3.10538732e-003 1.16203714e-003
      3.67280655e-003 1.63250808e-002 2.22655740e-002 3.08560748e-002
      1.11515783e-002 3.62978224e-003 1.12922362e-003 1.08645239e-003
      5.22843050e-003 1.73437763e-002 2.10942607e-002 7.45017221e-003
      5.34605188e-003 3.11494363e-003 3.31366551e-003 2.28265789e-003
      3.67245846e-003 6.90808753e-003 1.46854408e-002 1.27234859e-002
      7.76106538e-003 1.09725036e-002 3.40994541e-003 3.98713863e-003
      3.37877590e-003 3.12706805e-003 2.47242674e-003 2.93333433e-003
      3.91254527e-003 2.94079166e-003 7.69072445e-003 8.16083793e-003
      1.14239939e-002 7.38944253e-003 2.91397423e-003 2.89267674e-003
      1.05449383e-003 2.03080778e-003 1.28172792e-003 1.16301281e-003
      1.84950058e-003 1.88292633e-003 2.07552104e-003 3.57336667e-003
      8.23995844e-003 2.40959533e-004 2.44284951e-004 1.37820301e-004
      1.04262563e-003 7.55400339e-004 1.63097552e-003 5.09272190e-003
      1.67050418e-002 5.81497652e-003 1.46249577e-003 8.85340851e-004
      8.83120374e-005 1.39945978e-003 9.87343374e-004 7.47290719e-003
      1.63923763e-002 2.03725994e-002 7.51744770e-003 4.14335914e-003
      5.94782550e-003 2.62642652e-003 4.86761099e-003 1.83729560e-003
      8.84230155e-003 1.35915726e-002 1.59151349e-002 1.19463364e-002
      5.59778046e-003 3.73021024e-003 1.89280382e-003 6.78921537e-003
      1.32465456e-003 9.49806347e-003 2.17993893e-002 2.07638498e-002
      2.96907146e-002 6.19344087e-003 4.50321892e-003 7.48116523e-004
      1.63224025e-003 7.11028522e-004 5.29369200e-003 2.07206290e-002
      3.79686207e-002 1.30606238e-002 1.31354819e-003 1.06647064e-003
      9.60284611e-004 3.11036827e-003 2.05860895e-004 3.14330985e-003
      7.74169713e-003 2.60182377e-002 9.51802544e-003 1.31641398e-003
      7.03226426e-004 3.51691589e-004 8.66507646e-004 1.44485166e-004
      8.69785610e-004 3.12449818e-004 6.58537960e-003 3.23824189e-003
      1.02124235e-003 2.69703357e-003 2.32265890e-003 7.79865030e-003
      9.51655954e-003 1.06971068e-002 9.77407582e-003 8.01669899e-003
      8.83344840e-003 5.27537940e-003 8.07377137e-003 1.97703112e-002
      1.47466436e-002 1.08709997e-002 2.13465542e-002 4.33207788e-002
      2.44805105e-002 1.47985173e-002 1.39908995e-002 3.08179185e-002
      2.56281681e-002 1.66622028e-002 1.48681011e-002 3.49535681e-002
      5.89402728e-002 3.80619913e-002 1.68038476e-002 9.14872624e-003
      1.46717373e-002 8.11784994e-003 6.60426309e-003 2.36381460e-002
      6.97213113e-002 9.25547704e-002 5.48392385e-002 1.63568426e-002
      9.68219712e-003 4.61016316e-003 9.93400905e-003 1.76523179e-002
      1.79783683e-002 4.43048775e-002 5.83199747e-002 4.58951667e-002
      8.35200585e-003 6.93018269e-003 2.83046579e-003 1.00540537e-002
      1.07000889e-002 5.96591644e-003 2.73806304e-002 2.60800291e-002
      1.82409454e-002 3.63622908e-003 3.22272512e-003 2.04629404e-003
      1.12730823e-003 4.14861040e-003 1.16143364e-003 3.78923491e-003
      1.98048027e-003 2.72655254e-003 1.14289876e-002 7.69232912e-003
      6.65845070e-003 7.26042315e-003 2.08436847e-002 2.02952735e-002
      9.78182349e-003 6.89190254e-003 8.88008345e-003 1.35910427e-002
      1.53651228e-002 2.69917566e-002 7.41076395e-002 3.51472497e-002
      1.75812598e-002 2.04796121e-002 2.28953175e-002 2.28922125e-002
      2.52205376e-002 1.66052449e-002 2.84378212e-002 2.38841008e-002
      2.28456575e-002 3.55904400e-002 7.33265802e-002 1.01233736e-001
      7.79314786e-002 1.33172097e-002 1.06643755e-002 2.42280681e-002
      8.73693451e-003 6.53115511e-002 1.07140072e-001 8.18233117e-002
      4.68320511e-002 2.19721422e-002 2.92460211e-002 5.28803794e-003
      6.31749257e-003 1.72505602e-002 4.15081084e-002 8.16395134e-002
      7.41999820e-002 6.92844391e-002 5.58667518e-002 2.43160110e-002
      1.78329609e-002 1.03011644e-002 8.72459915e-003 1.36626083e-002
      2.36557778e-002 2.54678912e-002 3.89595591e-002 3.31027061e-002
      8.36899132e-003 9.60951950e-003 9.14006587e-003 2.18264549e-003
      8.83310940e-003 8.31829570e-003 8.62016622e-003 7.53381429e-003
      8.23938381e-003 1.89596117e-002 2.89029870e-002 2.79304180e-002
      1.13885161e-002 9.22425464e-003 1.18264090e-002 1.04159433e-002
      1.44317541e-002 2.61132903e-002 5.12313992e-002 5.05121239e-002
      3.78993191e-002 2.27990951e-002 1.93763357e-002 1.96731985e-002
      3.15769613e-002 4.96902689e-002 4.36424948e-002 1.79621596e-002
      3.45717482e-002 3.13523300e-002 8.98816437e-003 4.23827507e-002
      5.77539280e-002 8.53776261e-002 5.19331731e-002 1.65249705e-002
      1.59367062e-002 3.45806368e-002 3.59737426e-002 2.80579459e-002
      6.75920025e-002 8.80159885e-002 8.30121338e-002 3.58040035e-002
      1.85849257e-002 5.86440489e-002 1.33100122e-001 1.40976161e-001
      1.13477781e-001 4.02074493e-002 3.88004929e-002 3.53492610e-002
      3.66937183e-002 3.23536359e-002 1.13031842e-001 1.55800238e-001
      6.52550459e-002 1.23702521e-002 8.67716502e-003 2.06215903e-002
      1.71974339e-002 2.28317082e-002 7.99683705e-002 5.09773158e-002
      1.32792909e-002 1.01158088e-002 4.16824128e-003 7.88709149e-003
      7.20076868e-003 1.60774477e-002 5.92275523e-002 6.05853572e-002
      9.10225324e-003 1.48637276e-002 2.87852846e-002 1.21610016e-002
      9.59146116e-003 6.66835019e-003 1.17519228e-002 1.08883101e-002
      2.16767546e-002 2.48788651e-002 2.99087074e-002 5.01229651e-002
      6.30551279e-002 2.64205728e-002 1.05572613e-002 2.07248684e-002
      2.93131843e-002 1.96615551e-002 9.49922204e-003 9.49021354e-002
      1.48167208e-001 1.38533548e-001 6.58311993e-002 1.45443780e-002
      2.44418327e-002 2.27696206e-002 4.14653588e-003 5.11788689e-002
      2.12556347e-001 2.36888602e-001 2.02918574e-001 2.82562356e-002
      2.00386494e-002 1.86079387e-002 4.18058895e-002 6.57676309e-002
      1.37804151e-001 2.36888602e-001 2.36888602e-001 2.03177035e-001
      5.30406423e-002 2.29702387e-002 5.27975103e-003 1.28863323e-002
      2.40747388e-002 9.85182971e-002 1.99124038e-001 5.99110387e-002
      2.17878651e-002 2.53095962e-002 9.98985395e-003 4.62684827e-003
      1.85255948e-002 6.13136031e-002 3.78947742e-002 1.81604140e-002
      2.69053746e-002 1.71498079e-002 8.79763998e-003 2.25608815e-002
      3.35493796e-002 5.91474846e-002 4.12463062e-002 1.50188459e-002
      1.14890048e-002 7.41146551e-003 3.55214928e-003 3.10190371e-003
      9.05999681e-004 1.99940358e-003 3.30990367e-003 9.19550657e-003
      1.47582265e-002 3.25596407e-002 5.14422692e-002 4.31633145e-002
      1.51334796e-002 0. 5.11646911e-004 7.66519166e-004 5.82406297e-003
      5.96789119e-004 1.45098828e-002 1.25275895e-001 1.75544500e-001
      6.57897219e-002 6.84513710e-003 1.72490301e-003 0. 3.76262687e-005
      1.15397144e-002 5.92832528e-002 2.18729824e-001 2.06963837e-001
      6.08678758e-002 2.44651809e-002 1.59303360e-002 1.33173848e-002
      1.25428848e-002 1.86738875e-002 3.39594595e-002 6.92205355e-002
      1.03630640e-001 9.48757827e-002 3.01571749e-002 7.54827447e-003
      1.00018540e-002 1.88862085e-002 1.77951474e-002 1.90436654e-002
      2.09896900e-002 3.49180028e-002 3.68697010e-002 1.25072636e-002
      5.90060512e-003 5.12160081e-003 1.38482703e-002 4.13710577e-003
      9.32656787e-003 1.09992223e-002 7.95552693e-003 1.23341717e-002
      2.71285437e-002 3.01711541e-002 1.16584096e-002 5.82011277e-003
      6.44133147e-003 4.44119750e-003 3.50304577e-003 2.89702811e-003
      3.50647769e-003 6.31127332e-004 6.56387827e-004 1.62820728e-003
      2.45575095e-003 1.44164134e-002 2.41596885e-002 1.68456268e-002
      1.21417576e-002 2.91403383e-003 1.01012069e-004 1.56302951e-004
      1.38192903e-004 4.19475278e-003 8.45179241e-003 1.52996378e-002
      2.99795568e-002 3.61644700e-002 3.21877003e-002 2.94398572e-002
      9.60528571e-003 9.03431719e-005 7.03511469e-004 1.94236042e-003
      2.65332754e-003 1.74044259e-002 2.20335145e-002 4.63778116e-002
      4.62025255e-002 2.00352892e-002 5.64474426e-003 3.30225076e-003
      2.30556913e-003 4.93278215e-003 2.16334257e-002 6.24329746e-002
      5.73543347e-002 1.80663690e-002 6.00425294e-003 3.57099273e-003
      3.77694704e-003 1.61016930e-003 5.30286646e-003 1.55434674e-002
      2.42619105e-002 1.96610764e-002 1.22962026e-002 4.97736642e-003
      3.00883432e-003 2.37504370e-003 1.71798421e-003 3.37311393e-003
      3.67229129e-003 7.14330515e-003 2.26229616e-002 1.71462223e-002
      7.19473930e-003 2.72362819e-003 1.73968938e-003 1.23452386e-002
      2.38154246e-003 7.78086542e-004 8.28006305e-005 8.35032843e-004 0.
      3.61066574e-004 2.41285516e-003 8.75190459e-003 4.39698324e-002
      1.22503983e-002 3.55523801e-003 6.21004729e-005 1.85591460e-003
      6.09718962e-003 9.05311853e-003 1.46191297e-002 3.01268995e-002
      1.73647657e-001 4.78117950e-002 2.32905354e-002 0. 5.05418284e-003
      2.33314801e-002 4.72882837e-002 4.92526144e-002 8.16099644e-002
      1.62559241e-001 4.14560437e-002 2.38022543e-002 6.20448515e-002
      3.75408903e-002 3.48449424e-002 6.25646263e-002 7.54686520e-002
      1.78224161e-001 1.65455908e-001 1.63842961e-002 1.49323617e-003
      3.83148692e-003 1.89634357e-002 3.04318275e-002 5.83251473e-003
      5.54865273e-003 9.77226794e-002 1.21124357e-001 1.81737402e-003
      5.36660012e-003 1.14278705e-003 3.41086951e-003 1.78134430e-003
      1.83149416e-003 5.54516388e-004 1.04295529e-001 4.37105782e-002
      4.40397678e-004 7.89516140e-004 1.03013779e-004 1.15886563e-003
      2.65091099e-003 3.05749220e-003 3.26931337e-003 5.48016913e-002
      6.32328959e-003 1.58626051e-003 3.13215167e-003 6.99210155e-004
      2.56576203e-003 1.85182900e-004 1.73825596e-003 2.70283315e-003
      6.91578537e-003 1.20102502e-002 5.92610147e-003 5.06052282e-003
      4.18918964e-004 6.48249779e-003 1.89051647e-002 3.04352883e-002
      3.19003500e-002 1.61301624e-002 3.66747379e-002 2.16935258e-002
      1.09453797e-002 7.20932032e-004 1.02418074e-002 8.70342329e-002
      2.10454479e-001 1.67590588e-001 2.49316227e-002 6.83785975e-002
      5.52749783e-002 4.80926558e-002 1.35081947e-001 9.23278704e-002
      7.12082759e-002 1.53097451e-001 1.53738722e-001 7.96814263e-002
      4.18023355e-002 2.66062114e-002 1.57934539e-002 6.45834357e-002
      1.44324273e-001 8.16413984e-002 2.15292461e-002 9.86997876e-003
      2.12883279e-002 3.42672244e-002 3.40927094e-002 2.91111991e-002
      3.25332582e-002 2.74516884e-002 7.75070023e-003 4.54301294e-003
      2.72205286e-003 2.26875748e-002 1.59111433e-002 7.92398676e-003
      4.20232257e-003 2.24015582e-003 6.87720207e-003 1.02974661e-002
      8.32790043e-003 1.12913148e-002 2.73222029e-002 8.82744510e-003
      1.30237089e-002 1.46624288e-002 8.05879384e-003 6.09833328e-003
      2.38513318e-003 7.49365706e-003 7.07523571e-003 1.24349920e-002
      1.56442150e-002 5.34616318e-003 9.30790789e-003 2.35988013e-003
      1.04975905e-002 1.23500768e-002 4.46085185e-002 2.15145741e-002
      1.69941951e-002 1.65237766e-002 5.78983640e-003 1.37958564e-002
      1.50406174e-002 7.78283700e-002 1.04206219e-001 6.43688664e-002
      2.49691326e-002 1.25022456e-002 1.63163189e-002 1.23529239e-002
      6.81732781e-003 1.02816680e-002 5.68649992e-002 8.93938988e-002
      1.69746086e-001 9.23372060e-002 4.91763391e-002 1.89620443e-002
      1.20690130e-002 8.18956643e-003 2.57129017e-002 9.54060853e-002
      1.59019455e-001 2.14665398e-001 1.03021920e-001 4.38638255e-002
      2.80126631e-002 5.93301021e-002 2.66922899e-002 4.19250354e-002
      7.34680146e-002 1.18092112e-001 7.87898898e-002 8.01053569e-002
      4.13673818e-002 1.75759364e-002 2.52772029e-002 3.20935249e-003
      6.50105672e-003 2.66453885e-002 2.96780393e-002 1.55587541e-002
      1.38964113e-002 1.48092750e-002 1.68738700e-002 4.83307103e-003
      6.56749634e-003 7.26852939e-003 7.27746962e-003 8.31331685e-003
      3.12978923e-002 3.15559581e-002 3.86253111e-002 1.58007052e-002
      6.73951441e-003 3.69806471e-003 3.93794058e-003 2.38974690e-002
      4.85318527e-002 8.63726586e-002 5.15408888e-002 3.10153905e-002
      1.81390569e-002 1.51360510e-002 2.48114057e-002 3.45737934e-002
      4.78606448e-002 3.57552134e-002 3.62078100e-002 2.27814969e-002
      2.49205921e-002 1.14613948e-002 4.94503835e-003 1.07509298e-002
      8.95286631e-003 9.94232744e-002 7.52953887e-002 4.61492427e-002
      1.00855995e-002 1.26874503e-002 2.46503558e-002 9.50838439e-003
      5.87197253e-003 3.74101917e-003 6.95174634e-002 1.15487702e-001
      1.09016471e-001 1.01432271e-001 9.30933505e-002 2.13972796e-002
      1.67233869e-002 8.20918591e-004 7.53145851e-003 2.24444047e-002
      7.16826469e-002 1.54056653e-001 2.27195248e-001 8.65895003e-002
      1.72836818e-002 1.54668661e-002 1.73908453e-002 3.83267142e-002
      5.28598018e-002 9.25209075e-002 8.78409073e-002 5.84299453e-002
      1.26849459e-002 7.62207247e-003 3.04922368e-003 4.88171494e-003
      7.42534874e-003 1.06103467e-002 1.07827391e-002 1.93752795e-002
      3.47228982e-002 1.31954663e-002 2.07519419e-002 1.55852335e-002
      7.82969780e-003 1.06644202e-002 2.91716456e-002 3.62860747e-002
      4.11384068e-002 4.63509783e-002 3.82635593e-002 1.24339955e-002
      5.90752671e-003 8.35146848e-003 1.18008899e-002 3.53899263e-002
      4.37139794e-002 1.00938186e-001 8.21049735e-002 3.77369449e-002
      1.26799205e-002 9.82038304e-003 1.41520156e-002 3.13932709e-002
      1.17107145e-001 4.75396886e-002 6.03925996e-002 4.87023257e-002
      1.84625220e-002 2.98825372e-002 3.04563660e-002 2.77268924e-002
      3.39830257e-002 7.23033324e-002 7.11697638e-002 5.23995236e-002
      4.42062467e-002 5.23659326e-002 1.08211190e-002 4.37436014e-004
      2.56341533e-003 3.48793087e-003 2.94792820e-002 5.58350421e-002
      5.58579378e-002 5.65414503e-002 3.51886228e-002 1.46250874e-002
      7.94008281e-003 7.45157572e-003 3.20726377e-003 3.13833579e-002
      9.68172699e-002 1.02608480e-001 5.72320148e-002 8.28009844e-003
      5.20997634e-003 4.47027991e-003 7.62121053e-003 6.30612019e-003
      8.29614885e-003 1.33753540e-002 1.99845973e-002 9.37147625e-003
      2.23997026e-003 2.17716023e-002 9.78259090e-003 6.15173718e-003
      4.17947490e-003 5.51280566e-003 1.08529748e-002 1.31799979e-002
      1.28660677e-002 2.17983518e-002 1.77911203e-002 8.61471798e-003
      1.47290407e-002 6.81851897e-003 1.21614467e-002 5.24602411e-003
      3.78831998e-002 4.40767743e-002 3.39297354e-002 1.24455895e-002
      5.73236402e-003 5.82121639e-003 4.44179354e-003 2.87679937e-002
      3.73644643e-002 8.38700533e-002 1.00074753e-001 3.76915187e-002
      2.67227236e-002 2.04910096e-002 8.38700496e-003 5.39080892e-003
      1.57726780e-002 3.90539616e-002 3.18531916e-002 2.79598851e-002
      3.11946943e-002 1.07044624e-002 3.15870671e-003 5.05177677e-003
      6.41495548e-003 1.12965247e-002 1.75661780e-002 1.90613605e-002
      1.43022183e-002 1.47984261e-002 1.10360077e-002 5.64964395e-003
      6.42046053e-003 3.30971950e-003 6.00671349e-003 1.43085085e-002
      1.36720594e-002 1.15556968e-002 1.01384111e-002 1.38763001e-003
      1.62514870e-003 4.03113692e-004 3.48926173e-003 5.27362153e-003
      1.07417181e-002 1.10978344e-002 7.94026908e-003 1.10438862e-003
      1.05555486e-002 3.97553761e-003 1.93046918e-003 2.95223831e-003
      5.72046218e-003 6.53839763e-003 4.72984929e-003 5.55730751e-003
      1.00367144e-002 6.98552467e-003 1.08729047e-003 3.96243157e-003
      2.86195939e-003 1.13161011e-002 8.76942649e-003 7.32184807e-003
      7.84490444e-003 1.03944233e-002 1.23741280e-003 5.35249303e-004
      2.25595618e-003 1.84710906e-003 3.39170359e-002 2.74951514e-002
      9.32005141e-003 2.65180017e-003 1.71413273e-003 6.15689764e-003
      5.55475999e-004 3.39005608e-004 4.50532045e-003 1.40542779e-002
      1.28918467e-002 9.16370284e-003 4.26292047e-003 6.40030159e-003
      3.67608084e-003 2.25549121e-003 4.62583127e-003 8.40789452e-003
      1.73742846e-002 4.54204250e-003 4.53054486e-003 2.95314915e-003
      3.34297935e-003 2.31611845e-003 3.93664837e-003 7.35665020e-003
      3.19019309e-003 3.07798828e-003 5.52852289e-004 1.24465814e-003
      7.23195262e-004 2.05559959e-003 3.63846251e-004 1.15694699e-003
      6.31131791e-003 1.89478360e-002 6.59338757e-002 9.85100679e-003
      5.91740536e-004 3.47324717e-003 7.05450831e-004 1.70630671e-003
      2.38335482e-003 9.68612637e-003 2.80702524e-002 6.04247972e-002
      1.87363550e-002 6.31111627e-003 6.07362250e-003 2.77050585e-003
      2.91806180e-003 1.31427578e-003 3.96499084e-003 6.02963427e-003
      1.60101764e-002 1.45019731e-002 1.02308867e-002 3.05605493e-003
      3.41495802e-003 1.36383309e-003 2.93682795e-003 1.02833379e-002
      3.68579663e-002 5.20196892e-002 8.70369077e-002 2.81245150e-002
      6.20345993e-004 6.19609724e-004 2.06652973e-002 1.51303075e-002
      1.58200543e-002 5.13056591e-002 4.69148718e-002 3.21133099e-002
      1.59642007e-002 5.08585898e-003 1.51092447e-002 6.32046163e-002
      6.48308322e-002 3.44338343e-002 5.58055639e-002 4.29888517e-002
      1.82873737e-002 1.24057392e-002 1.74053237e-002 2.62875762e-002
      5.71290553e-002 5.00310212e-002 2.89812535e-002 1.60045456e-002
      1.71633027e-002 9.75672156e-003 8.39058589e-003 5.32923033e-003
      1.92734785e-002 1.15763058e-003 8.22749571e-004 5.77857904e-003
      2.14114618e-002 6.62601143e-002 2.70574447e-002 3.79579351e-003
      6.88402774e-003 1.93563488e-003 3.53457336e-003 8.41936190e-003
      2.50904374e-002 3.73131074e-002 6.31885976e-002 2.64631268e-002
      8.63867998e-003 6.10361388e-003 1.51870830e-003 5.56580210e-003
      8.41098092e-003 1.67419296e-002 1.19557614e-002 3.09567358e-002
      1.56077789e-002 1.99109558e-002 7.00440537e-003 5.30996872e-003
      4.98136412e-003 3.37522244e-003 9.26140230e-003 2.06775740e-002
      5.85111305e-002 1.24487467e-001 1.03475653e-001 5.21931984e-002
      1.34090427e-002 1.87926292e-002 3.49849323e-003 6.43460685e-003
      3.55283730e-002 8.87974650e-002 1.47810012e-001 1.61436200e-001
      1.08596720e-001 7.23241270e-002 1.95847005e-002 2.35728025e-002
      3.86808999e-002 6.73290268e-002 6.08945042e-002 3.69026661e-002
      6.10199310e-002 8.61335173e-002 5.40813655e-002 1.39824990e-002
      3.76398340e-002 7.83759132e-002 4.73905355e-002 2.65903659e-002
      1.43958488e-002 1.27109187e-002 1.83018278e-002 2.30637267e-002
      1.30846980e-003 2.99962674e-004 5.07435016e-003 2.60148756e-002
      9.82938781e-002 2.64410339e-002 1.97443226e-003 7.07771105e-004
      1.35932851e-003 2.30155350e-003 2.84137740e-003 2.20658947e-002
      5.76450862e-002 1.20280512e-001 1.38642378e-002 3.62346298e-003
      3.43039120e-003 3.38258757e-003 1.83726735e-002 1.36815701e-002
      2.48058122e-002 9.01135057e-003 2.86627244e-002 1.13779977e-002
      3.18401381e-002 2.90411413e-002 2.25199200e-002 1.25861065e-002
      6.90635899e-003 1.17806541e-002 2.78470363e-003 3.12620476e-002
      5.08396849e-002 7.61969760e-002 9.14755985e-002 4.36885841e-002
      3.42338085e-002 1.90452505e-002 3.18960771e-002 4.05502915e-002
      1.01491228e-001 1.95233852e-001 1.66574225e-001 1.65039778e-001
      8.35637674e-002 1.71166901e-002 2.49484684e-002 2.68087424e-002
      3.47851217e-002 5.01269996e-002 9.06901136e-002 2.14475185e-001
      2.08294347e-001 6.89974204e-002 1.19398022e-002 4.37739082e-002
      5.74284680e-002 7.85081536e-002 3.75140570e-002 1.17152706e-002
      1.44497957e-002 3.19865085e-002 1.99353900e-002 1.12621011e-002
      1.59964282e-002 2.42160987e-002 2.46249214e-002 7.33421817e-002
      1.45243620e-002 2.92172935e-003 4.01797518e-003 6.42474601e-003
      3.00394166e-002 5.07754385e-002 5.33098057e-002 4.82668653e-002
      3.97610180e-002 9.15585458e-003 2.07496639e-002 3.41810249e-002
      5.38753271e-002 3.79905254e-002 2.98054144e-002 1.07054301e-002
      6.72991900e-003 3.68923135e-002 2.51795817e-002 6.67623132e-002
      9.78195444e-002 8.28070864e-002 3.95535938e-002 3.13999429e-002
      2.74540018e-002 2.05592010e-002 5.11080809e-002 7.28628635e-002
      4.84118573e-002 5.42069338e-002 7.63982981e-002 7.83836916e-002
      6.31885678e-002 6.95819259e-002 3.49667929e-002 3.91021892e-002
      2.46544685e-002 2.96540167e-002 3.28760035e-002 6.63391203e-002
      8.97941217e-002 1.33341581e-001 6.97052330e-002 1.77940968e-002
      2.82320324e-002 2.18578149e-002 8.01183209e-002 1.52671814e-001
      7.50617981e-002 1.91628486e-002 7.93999657e-002 6.29581138e-002
      4.51106951e-002 2.60304008e-002 1.36114964e-002 1.86869465e-002
      5.77123761e-002 2.35044155e-002 1.54417809e-002 1.72429923e-002
      1.70160625e-002 4.05860208e-002 5.48035987e-002 4.61689522e-003
      5.35798166e-003 1.16677070e-002 1.39396135e-002 5.30995056e-002
      7.72866830e-002 4.65656854e-002 2.13951450e-002 9.12049599e-003
      1.61999222e-002 2.05576569e-002 3.22388895e-002 4.37394157e-002
      2.80415677e-002 3.27465013e-002 1.34189650e-002 4.50810371e-003
      1.10630672e-002 7.37404749e-002 1.21483341e-001 1.16775975e-001
      7.85890892e-002 1.31221581e-002 1.68659259e-002 4.97098453e-003
      1.97981037e-002 9.00507867e-002 1.69627488e-001 1.11921690e-001
      7.37701282e-002 1.74187850e-002 4.25295904e-002 5.90215474e-002
      4.01537828e-002 6.45343214e-002 8.12609419e-002 5.30110076e-002
      7.48261809e-002 7.30478615e-002 2.53842715e-002 6.39106184e-002
      7.17985928e-002 2.77405456e-002 1.83295347e-002 2.16314774e-002
      3.15317586e-002 6.57426640e-002 5.46261594e-002 2.61175074e-002
      1.08675165e-002 2.25034095e-002 1.40634840e-002 1.22060403e-002
      4.04491089e-002 1.63395647e-002 1.62444580e-002 2.06398834e-002
      1.72497090e-002 3.79738328e-003 3.64045450e-003 1.65568339e-003
      2.68095452e-002 1.06760651e-001 5.12468349e-003 5.57842106e-003
      5.96738746e-003 7.18886033e-003 2.82155033e-002 1.32137351e-002
      1.62769724e-002 1.87191106e-002 3.02984789e-002 1.80130247e-002
      1.97266471e-002 2.04098821e-002 2.45761722e-002 8.57435819e-003
      7.03900261e-003 1.59031115e-002 1.10456198e-002 1.54979210e-002
      4.04631011e-002 9.13912952e-002 5.12431450e-002 2.59084571e-002
      1.68543663e-002 8.39782506e-003 1.99221657e-003 5.73212747e-003
      2.86829975e-002 5.71167096e-002 1.34053841e-001 9.49127004e-002
      2.51048524e-002 1.93825513e-002 7.34239956e-003 1.89712131e-003
      6.26550661e-003 1.91880297e-002 7.71991834e-002 1.38300583e-001
      1.30644932e-001 3.22586372e-002 5.45324385e-002 1.61755830e-002
      4.02138336e-003 6.04796049e-004 1.14134303e-003 1.88408643e-002
      5.76903634e-002 4.05369066e-002 4.93017100e-002 3.22349742e-002
      1.38049079e-002 5.50582632e-003 1.33358489e-003 1.31816533e-003
      3.24279792e-003 1.18903304e-002 2.40663998e-002 4.34026308e-002
      6.21842220e-004 1.69478904e-003 4.61806689e-004 7.94139225e-003
      6.69837147e-002 4.61360067e-003 1.12123031e-003 6.09783805e-004
      5.19273104e-004 2.03611376e-003 1.94121141e-003 1.51863252e-003
      3.35596199e-003 1.96496658e-002 1.27536952e-002 1.30102364e-002
      6.37754519e-003 4.09034267e-003 4.72501013e-003 1.37304224e-003
      4.95917117e-003 5.74142765e-003 8.70622601e-003 1.29887387e-002
      2.11029276e-002 2.07844283e-002 1.44712850e-002 1.87172405e-002
      7.23302085e-003 4.53795260e-003 6.78761676e-003 1.53469844e-002
      1.57815516e-002 1.80723630e-002 2.22594272e-002 2.19239984e-002
      1.85724143e-002 5.30309370e-003 4.18226747e-003 5.22093754e-003
      1.44021502e-002 1.86853576e-002 4.21237461e-002 3.86905894e-002
      1.45254564e-002 2.81218588e-002 1.06470166e-002 4.13706666e-003
      1.52340229e-003 5.10573667e-003 5.03056077e-003 1.20775094e-002
      1.38058001e-002 2.30416097e-002 3.00324359e-003 6.81786216e-004
      2.48488830e-003 3.32406093e-003 3.67865292e-003 3.71984998e-003
      5.31788869e-003 6.73013134e-003 7.70869292e-003 2.52509117e-003
      1.83775311e-003 1.22857536e-003 8.73022247e-004 5.53899165e-003
      9.16671753e-003 1.05526801e-002 5.33496216e-003 5.62136061e-003
      3.27356881e-003 3.63117410e-003 7.46574812e-003 1.69032868e-002
      2.15356667e-002 2.25628689e-002 4.98959282e-003 1.74836325e-003
      4.00839094e-003 1.91236124e-003 4.45514976e-004 5.19394269e-003
      1.16777308e-002 2.62530055e-002 2.42184605e-002 1.20175229e-002
      5.76385343e-003 2.66900659e-003 1.52096665e-002 2.22018571e-003
      1.76553545e-003 8.62219720e-004 1.69267715e-003 4.89721633e-003
      1.05408141e-002 2.21884139e-002 2.19707172e-002 1.41387507e-002
      7.22640241e-003 1.62933371e-003 0. 1.88361201e-003 4.84972307e-003
      1.09906476e-002 1.77926440e-002 2.07613483e-002 6.45198207e-003
      4.10962710e-003 8.18741217e-004 0. 2.09469721e-003 4.18603420e-003
      1.12680681e-002 2.11207867e-002 1.44465175e-002 4.58232127e-003
      4.92951227e-003 2.83496385e-003 4.55683155e-004 1.00189529e-003
      4.24770318e-004 2.30376096e-003 7.50553142e-003 6.12418866e-003
      1.17517484e-003 1.89542456e-003 2.53347773e-003 7.32296985e-003
      2.80491002e-002 1.54608022e-002 8.20382219e-003 4.82479809e-003
      3.70896817e-003 1.32063718e-003 3.15863197e-003 3.02474014e-003
      2.91016586e-002 9.23291743e-002 5.87503873e-002 1.35253025e-002
      1.20873759e-002 3.85077833e-003 2.76180524e-002 3.80966179e-002
      1.89319048e-002 1.41780199e-002 3.05977520e-002 1.98052749e-002
      3.44333053e-002 3.11324000e-002 2.34585274e-002 1.21580757e-001
      5.16184382e-002 2.00422909e-002 1.40864856e-003 1.03652931e-003
      4.44746867e-004 7.47507252e-003 3.33896540e-002 1.04363956e-001
      1.04791142e-001 4.05281335e-002 1.24449329e-002 0. 9.55035503e-004
      9.55014606e-004 8.76390841e-003 5.79756685e-002 1.49072438e-001
      5.42644896e-002 6.92016482e-002 2.91975439e-002 3.60844075e-003
      2.51931400e-004 3.65752232e-004 2.24647373e-002 5.30010164e-002
      6.24032393e-002 5.67777641e-002 5.23432083e-002 3.09159160e-002
      4.08699038e-003 2.04395247e-003 3.54780559e-003 7.98180979e-003
      2.14765035e-002 4.60494645e-002 1.87497830e-003 1.56625744e-003
      4.26718686e-003 4.63170605e-003 2.17246134e-002 2.83129215e-002
      1.30555369e-002 6.82256930e-003 3.17981769e-003 1.60938464e-002
      4.76981048e-003 6.27341913e-003 4.70258063e-003 3.83024439e-002
      4.89943400e-002 4.42960039e-002 1.19151056e-001 5.55367023e-002
      1.46802559e-001 9.59036574e-002 7.39325657e-002 8.67938437e-003
      6.18170714e-003 5.17720822e-003 1.65001862e-002 8.12200531e-002
      2.17525318e-001 2.00631231e-001 1.57450780e-001 7.91632682e-002
      1.83295477e-002 3.30816507e-002 1.39828501e-002 9.69708525e-003
      3.09529714e-002 1.27856493e-001 1.73358962e-001 4.33302037e-002
      2.40846630e-002 3.16261090e-002 3.16363573e-002 1.57329738e-002
      1.83251780e-002 8.21847916e-002 1.65608153e-001 9.88472626e-002
      1.22386225e-001 4.44839001e-002 1.45172775e-002 1.13628665e-002
      1.98217039e-003 1.18088154e-002 2.34875046e-002 6.86671659e-002
      2.26538628e-002 5.14218211e-002 4.95311096e-002 1.98662188e-002
      1.17903790e-002 4.38783178e-003 3.10116936e-003 6.51639700e-003
      1.14663271e-002 6.18128991e-003 5.03142970e-003 7.08814245e-003
      4.91959648e-003 1.56431515e-002 1.91281401e-002 2.02360507e-002
      9.08636022e-003 4.26858058e-003 4.49398458e-002 2.70282384e-002
      2.31733155e-002 2.08784528e-002 2.27391999e-002 1.47711849e-002
      2.73095910e-002 8.06291103e-002 7.69429728e-002 1.01052836e-001
      7.16776699e-002 7.03341663e-002 7.86777958e-002 5.75053655e-002
      1.39096240e-002 2.19627246e-002 4.70421501e-002 7.85589293e-002
      6.79057091e-002 4.32814881e-002 6.02472350e-002 4.75583673e-002
      1.21337123e-001 5.38635142e-002 2.63752285e-002 2.28734706e-002
      4.61559296e-002 2.67765447e-002 2.83974204e-002 3.55941318e-002
      6.63416833e-002 7.70519003e-002 4.59724069e-002 3.01680025e-002
      1.59389880e-002 1.88998710e-002 4.19073179e-002 3.27102728e-002
      2.47690286e-002 1.23414276e-002 2.19398327e-002 1.15505606e-002
      2.89342031e-002 3.00478581e-002 3.31797674e-002 1.39935361e-002
      3.02918069e-002 6.78448603e-002 5.34684323e-002 1.79553404e-002
      1.57857698e-003 1.64092775e-003 2.85940291e-003 7.25953653e-003
      2.88749374e-002 2.04853602e-002 1.96275376e-002 2.01873966e-002
      1.45536028e-002 1.02442997e-002 6.53256755e-003 7.16801966e-003
      1.92057770e-002 1.16203077e-001 1.73461795e-001 7.21502900e-002
      1.64303370e-002 1.30319605e-002 8.02779570e-003 1.18377889e-002
      1.35714142e-002 2.98280716e-002 2.13895351e-001 2.21251085e-001
      7.20749944e-002 4.15043607e-002 5.05101904e-002 9.18860175e-003
      2.43772417e-002 4.03129905e-002 6.00545183e-002 9.65173095e-002
      9.09317136e-002 5.08762412e-002 3.70206535e-002 6.68552071e-002
      3.57556157e-002 6.39800802e-002 9.42931101e-002 4.40997072e-002
      2.12937742e-001 1.19089812e-001 4.60180081e-002 8.10916908e-003
      1.31695988e-002 8.85959622e-003 1.08020930e-002 2.34550517e-002
      1.02632992e-001 1.22865714e-001 1.13047026e-001 5.68694621e-002
      5.79105457e-003 2.92332354e-003 1.04477897e-003 3.84227885e-003
      1.83304977e-002 8.02135691e-002 6.55877888e-002 8.42832699e-002
      5.80735281e-002 1.97626725e-002 3.87562974e-003 0. 9.83597329e-006
      7.96296692e-004 7.12502329e-003 4.28754203e-002 2.67726853e-002
      1.48459915e-002 3.32125160e-003 1.29683455e-003 3.77072109e-004
      4.28126979e-004 8.58926587e-003 3.15161087e-002 5.64828068e-002
      1.03848889e-001 7.24468082e-002 1.48033705e-002 4.06809291e-003
      1.10915035e-003 3.35084600e-003 5.40476339e-003 2.42314991e-002
      8.54535922e-002 7.64865950e-002 2.41098776e-002 4.06986335e-003
      1.38817253e-002 4.48646722e-003 1.98988095e-002 3.42236087e-002
      5.63371442e-002 8.66183415e-002 6.99140280e-002 4.08798903e-002
      3.93061107e-003 6.74151536e-003 4.98721236e-003 3.29261534e-002
      1.09179914e-001 8.96456838e-002 6.21385872e-002 6.66570365e-002
      3.56866159e-002 2.97649461e-003 4.67202952e-003 7.69060850e-003
      2.50687078e-002 4.28853966e-002 3.68059352e-002 3.05772480e-002
      4.07753997e-002 4.24332097e-002 3.00404355e-002 2.16539316e-002
      6.58402801e-004 1.65816653e-003 5.81800845e-003 2.55726743e-002
      1.66719668e-002 2.62266956e-002 3.05247195e-002 2.60118879e-002
      1.91391595e-002 8.22046073e-004 2.39330169e-004 3.45556618e-005
      2.56444747e-003 3.73221375e-003 3.29005462e-003 3.35938064e-003
      3.04313819e-003 8.22313316e-003 2.37207138e-003 1.78602966e-003
      2.52740667e-003 3.47736687e-003 4.61261626e-003 9.12207924e-003
      1.22367609e-002 4.15069610e-003 4.46619093e-003 1.68495765e-003
      2.82111601e-003 5.23727015e-003 7.21316878e-003 1.16417874e-002
      1.63625702e-002 7.82365259e-003 3.42061976e-003 9.96717904e-003
      2.08833329e-002 2.15030964e-002 1.70801785e-002 9.46208835e-003
      1.00151207e-002 1.11204349e-002 1.04551911e-002 7.43909366e-003
      2.20274702e-002 7.95906130e-003 1.18005676e-002 1.22202691e-002
      8.36979132e-003 5.59129566e-003 7.81798642e-003 5.92003064e-003
      3.46811581e-003 1.38779879e-002 3.64896399e-003 8.17927811e-003
      9.36333183e-003 4.61150846e-003 2.08894140e-003 2.71763164e-003
      7.39308773e-003 1.29864765e-002 1.63097028e-002 1.06414882e-002
      1.32065406e-002 4.73431731e-003 2.55470583e-003 9.42599494e-004
      2.62847403e-003 2.26026145e-003 7.35876989e-003 1.03912223e-002
      9.21348762e-003 9.38789826e-003 2.00096192e-003 1.24714128e-003
      2.16262713e-002 4.06558812e-003 8.03218049e-004 3.43909778e-004
      1.83165088e-004 1.60298820e-004 2.86740280e-004 3.60909663e-003
      1.57431047e-002 2.01592352e-002 1.06165139e-002 1.06309922e-002
      1.59778763e-002 7.83322565e-003 3.76831274e-003 1.53615093e-003
      8.97154491e-003 2.14190744e-002 7.72671634e-003 1.51382154e-002
      3.45499218e-002 2.98642199e-002 1.69193950e-002 1.16212096e-003
      1.17115607e-003 2.85357330e-003 4.00127517e-003 5.83241752e-004
      1.24495998e-002 4.14394252e-002 4.45607752e-002 2.66362056e-002
      2.93533877e-003 2.06915126e-003 1.92664668e-003 2.66039890e-004
      8.10865685e-003 1.16735511e-002 1.64496247e-002 3.59004475e-002
      4.09524664e-002 2.36204360e-002 1.42422942e-002 1.74156670e-002
      8.06792360e-003 1.14847254e-002 9.00703575e-003 6.10988820e-003
      8.95183533e-003 2.32478082e-002 1.66597515e-002 8.46437924e-003
      7.06314947e-003 1.05997575e-002 3.34166433e-003 4.09587007e-003
      3.91755998e-003 1.43944090e-002 2.15210933e-002 2.98643336e-002
      2.25158352e-002 9.69796162e-003 4.05122666e-003 2.64881179e-002
      1.34099191e-002 5.91182243e-003 6.55610906e-003 9.28022247e-003
      3.49448901e-003 3.37213022e-003 1.21218115e-002 2.95035578e-002
      3.09900921e-002 1.20315719e-002 7.36239506e-003 5.14922244e-003
      6.79532066e-003 2.13332428e-003 8.70401133e-003 3.46833281e-002
      5.78956604e-002 3.20412591e-002 1.46451807e-002 1.22009385e-002
      4.10942100e-002 3.66610251e-002 2.19219201e-003 1.03935460e-002
      1.88861620e-002 3.83178256e-002 1.27041223e-003 9.56295058e-003
      3.36087681e-002 1.17733642e-001 1.01375006e-001 4.69296472e-003
      7.71408621e-003 2.90907407e-003 5.28394827e-004 2.07141284e-002
      4.20861468e-002 4.44562659e-002 6.43871948e-002 3.56294848e-002
      1.40452860e-002 9.85610299e-003 8.16857908e-003 1.03777759e-002
      1.67194959e-002 2.55941376e-002 1.64553300e-002 1.93792563e-002
      5.92987612e-002 4.24146764e-002 6.68916246e-003 4.96336631e-003
      1.07651912e-002 2.09502014e-003 8.03406059e-004 1.53703999e-003
      1.48026058e-002 8.81956816e-002 1.01616010e-001 2.33639646e-002
      2.60363612e-003 1.42433681e-003 6.21358957e-003 3.97543684e-002
      7.04151690e-002 4.01364639e-002 1.94597524e-002 4.71132062e-003
      2.63593625e-003 6.46938849e-003 7.19836913e-003 7.95365199e-002
      3.04284953e-002 3.22891921e-002 3.09174396e-002 5.36778122e-002
      1.86711624e-002 8.15240759e-003 3.34851108e-002 8.53962451e-002
      8.70938301e-002 5.96206710e-002 4.71276604e-002 1.10834047e-001
      1.40020147e-001 3.66298445e-002 2.11934410e-002 2.49536801e-002
      8.99672508e-002 5.32512963e-002 7.69589245e-002 1.03593133e-001
      1.74194068e-001 7.50219896e-002 6.41513942e-003 1.02345981e-002
      7.01052137e-003 4.94157597e-002 2.23661456e-002 2.99724564e-002
      5.34803681e-002 4.66415621e-002 6.23510554e-002 2.18083002e-002
      2.76417844e-002 2.02356651e-002 2.24883817e-002 1.65667385e-002
      2.82351896e-002 2.61193290e-002 3.46690975e-002 7.75357187e-002
      5.83448932e-002 2.45685894e-002 2.20628884e-002 2.42364630e-002
      1.31107867e-003 5.19833935e-004 1.09364290e-003 4.56768870e-002
      1.68913335e-001 1.09713487e-001 6.96007907e-003 1.93561101e-003
      1.88139302e-003 7.71989813e-003 1.14916274e-002 5.15984036e-002
      4.60201502e-002 3.30650173e-002 1.44461226e-002 8.51119123e-003
      4.35593911e-003 3.16202757e-003 7.40367845e-002 3.89442965e-002
      5.81537373e-002 1.14680514e-001 1.78010017e-001 6.82202503e-002
      3.12347375e-002 2.23047789e-002 4.76468690e-002 1.02186635e-001
      8.85539949e-002 8.02106485e-002 2.00513527e-001 1.67139068e-001
      6.42032772e-002 5.95284812e-002 3.45233008e-002 6.00017048e-002
      6.45744428e-002 5.90085685e-002 4.99433465e-002 2.12035198e-002
      3.51917855e-002 5.75757660e-002 5.61594479e-002 4.13693041e-002
      4.93563898e-002 2.39273105e-002 3.57641801e-002 6.83790967e-002
      5.30012697e-002 7.54308626e-002 6.14122897e-002 4.97688502e-002
      3.29028815e-002 1.57733727e-002 2.55751051e-002 4.99018244e-002
      4.56508473e-002 4.74434048e-002 8.36987644e-002 7.26656467e-002
      1.85198504e-002 1.18982252e-002 1.84683781e-002 6.15221495e-003
      1.78857073e-002 3.03337444e-002 7.90803730e-002 1.96315765e-001
      1.16630718e-001 1.34985298e-002 4.59073251e-003 3.08825774e-003
      3.54572125e-002 2.65867915e-002 2.81435996e-002 2.86848936e-002
      1.52808558e-002 8.03054217e-003 3.29153566e-003 5.29803941e-003
      1.88731328e-002 8.73648003e-003 1.35785639e-002 2.66397037e-002
      1.03482850e-001 1.81275740e-001 1.14913635e-001 1.03790283e-001
      4.85406481e-002 1.20578334e-002 3.97039317e-002 3.31225172e-002
      1.30135845e-002 1.55932074e-002 5.14342114e-002 9.55221578e-002
      1.27577052e-001 8.18845704e-002 2.96990685e-002 1.05871581e-001
      1.11092359e-001 3.14936973e-002 5.00030583e-003 7.57692102e-003
      3.72033454e-002 7.88881704e-002 5.78043424e-002 6.34852871e-002
      4.79449704e-002 1.02932483e-001 1.15715727e-001 5.12082502e-002
      2.02668216e-002 3.67625654e-002 6.38647899e-002 3.19450162e-002
      3.76260243e-002 3.99358198e-002 7.49021247e-002 4.36492823e-002
      4.22089398e-002 1.04938395e-001 1.12157047e-001 4.16003354e-002
      2.04424616e-002 1.17943985e-002 1.24055222e-002 2.53482442e-002
      2.59469282e-002 4.62654494e-002 1.27613470e-001 9.84001234e-002
      4.43926826e-002 1.36958193e-002 9.03140567e-003 2.88538504e-002
      1.12164039e-002 6.02797279e-003 7.30868476e-003 1.10074598e-002
      1.67351868e-002 7.22144451e-003 5.42062055e-003 2.98522674e-002
      5.97923668e-003 3.43472115e-003 6.45107822e-003 2.62618456e-002
      1.03718765e-001 9.61607397e-002 5.32555133e-002 3.37860771e-002
      8.13217275e-003 3.35405804e-002 2.52483580e-002 3.13987210e-002
      2.17360072e-002 6.20589964e-002 5.31423017e-002 5.98137118e-002
      6.34414554e-002 3.00171692e-002 7.14779794e-002 6.93953708e-002
      2.89628096e-002 2.48178001e-002 4.45056558e-002 4.32558209e-002
      2.93894224e-002 1.85306333e-002 3.93466577e-002 3.15349549e-002
      4.68163155e-002 4.84404266e-002 2.87224557e-002 2.69009676e-002
      2.90325694e-002 2.04255562e-002 1.21278241e-002 1.88737884e-002
      2.00536773e-002 2.11102758e-002 1.18970666e-002 2.91930307e-002
      6.56990036e-002 4.77808043e-002 4.16374169e-002 2.98665632e-002
      1.58327259e-002 4.30253288e-003 3.75676597e-003 8.33249837e-003
      3.17567177e-002 9.30663347e-002 7.61449933e-002 5.96581548e-002
      2.78774146e-002 7.22909812e-003 1.64784095e-003 2.14376696e-003
      4.22192039e-003 8.64246394e-003 1.19047677e-002 9.76404641e-003
      3.66812013e-003 1.28009694e-003 1.36558502e-003 7.88043253e-004
      3.77692771e-003 7.10292766e-003 2.35778466e-002 4.65536304e-002
      3.78077887e-002 1.06448168e-002 1.25159521e-003 4.74452318e-005
      1.48849329e-003 3.67500866e-003 1.51493745e-002 2.66362689e-002
      7.14065135e-002 3.72114107e-002 2.05523148e-002 1.02941925e-002
      3.07433400e-003 5.03203087e-003 7.26947561e-003 1.58211160e-002
      1.73837095e-002 6.26628548e-002 4.13596369e-002 2.59284414e-002
      1.37116555e-002 1.00949239e-002 6.27289806e-003 1.21140629e-002
      2.62543075e-002 2.09031273e-002 2.75951102e-002 1.55694578e-002
      8.67960975e-003 5.56151569e-003 5.26144588e-003 2.32298952e-003
      2.46537384e-003 6.19988237e-003 1.26135470e-002 2.21562944e-002
      1.94814559e-002 1.76723097e-002 8.54618102e-003 2.02471786e-003
      4.81260096e-004 3.15674057e-004 1.52729149e-003 4.51591099e-003
      1.95521358e-002 4.78445329e-002 2.96888202e-002 7.66054308e-003
      1.68798794e-003 9.81147517e-004 1.85416226e-004 6.43915497e-004
      1.56974071e-003 5.28183021e-003 2.79180110e-002 2.38960404e-002
      5.16423257e-003 1.95665192e-003 2.32041860e-003 6.90639310e-004
      8.65164737e-004 1.33464916e-003 1.12939477e-002 2.69657373e-002
      1.34482589e-002 7.35826232e-003 3.86143290e-003 8.72432720e-003
      7.92685058e-003 6.58426294e-003 2.75247567e-003 1.04641235e-002
      7.14858528e-003 9.05414578e-003 8.86540022e-003 9.19141714e-003
      1.29766567e-002 6.04120502e-003 8.24183784e-003 6.04152493e-003
      2.31853127e-002 7.11835409e-003 8.68312921e-003 7.19188200e-003
      1.33271497e-002 4.36205603e-003 2.33401801e-003 4.80453111e-003
      5.42905414e-004 1.99116524e-002 1.06173670e-002 1.19841360e-002
      6.35079946e-003 4.87030344e-003 4.14234260e-003 2.20760843e-003
      2.40727537e-003 2.70608766e-003 1.94392856e-002 9.52865276e-003
      7.43903546e-003 4.02022293e-003 3.61072598e-003 4.37517418e-003
      3.81828635e-003 2.77407886e-003 1.57280464e-003 1.82508316e-003
      4.82616633e-005 1.01719238e-003 1.27068162e-003 2.37009139e-003 0.
      4.17570962e-004 2.05170247e-003 4.81841248e-003 2.19154265e-002
      1.16497658e-001 6.26385808e-002 7.54759414e-003 5.31320111e-004
      1.36248779e-003 7.10112799e-004 1.18506537e-003 3.47144366e-003
      4.37448546e-002 9.09355804e-002 5.93158752e-002 2.01562587e-002
      3.76968901e-003 5.46199083e-003 5.93277719e-003 8.33820459e-003
      3.88993602e-003 5.43577150e-002 1.00914277e-002 1.64085943e-002
      8.33115354e-003 5.33516752e-003 1.12118982e-002 5.16641513e-003
      9.13996343e-003 2.13801228e-002 6.03019074e-002 1.99136995e-002
      1.95407290e-002 1.01063102e-002 9.05016251e-003 1.51398722e-002
      1.48626771e-002 1.42821809e-002 3.46742310e-002 4.18029577e-002
      3.04498300e-002 2.85845194e-002 1.46824913e-002 1.25326682e-002
      1.26508074e-002 8.68932065e-003 7.52003724e-003 1.01165725e-002
      2.99685560e-002 1.13729350e-002 1.23662539e-002 9.61859524e-003
      1.08986394e-002 1.17945876e-002 6.80283597e-003 4.36352286e-003
      9.67522268e-004 5.67800552e-003 6.31069881e-004 2.83514406e-003
      2.69062677e-003 6.12924481e-003 4.54415422e-004 2.65732966e-003
      1.23320287e-002 2.77504791e-002 3.87871861e-002 9.58117768e-002
      8.22528079e-002 9.75814182e-003 5.57708263e-004 1.67067756e-003
      2.66338000e-003 1.18931392e-002 5.62820621e-002 2.26747543e-001
      2.34255463e-001 1.08481623e-001 1.10703129e-002 1.64037151e-003
      2.88776271e-002 2.78263986e-002 2.94284783e-002 4.96123582e-002
      1.39520317e-001 7.50868991e-002 4.12005931e-002 2.38007568e-002
      6.40900359e-002 2.15847138e-002 4.41967435e-002 4.94716130e-002
      2.60349177e-002 8.75841454e-002 5.92176095e-002 2.86803115e-002
      1.89013164e-002 2.70532463e-002 1.63552575e-002 2.78261993e-002
      3.43431868e-002 3.74902003e-002 7.81223103e-002 4.91786934e-002
      3.21890302e-002 1.91056281e-002 1.89525094e-002 2.08703279e-002
      1.40486751e-002 1.32636260e-002 1.58374496e-002 3.39626633e-002
      1.28073609e-002 1.24848913e-002 1.47736995e-002 2.36163270e-002
      6.07295753e-003 7.14658201e-003 9.63601656e-003 5.52831776e-003
      1.16052749e-002 1.41779066e-003 5.97645948e-003 3.01443180e-003
      5.37017081e-003 4.88972571e-003 2.03114599e-002 4.07000855e-002
      8.45967606e-002 4.95395027e-002 1.34786190e-002 5.80993807e-003
      1.20383583e-003 1.20858289e-003 1.72061578e-003 5.46206674e-003
      1.06069762e-002 9.20419395e-002 2.71029979e-001 2.07141176e-001
      2.25230008e-002 1.60037912e-003 5.96057973e-004 2.40373835e-002
      2.38720048e-002 2.45981701e-002 5.42308614e-002 2.71029979e-001
      1.35476112e-001 2.99604740e-002 1.62114725e-002 3.11232321e-002
      4.99331132e-002 4.09202278e-002 3.62839215e-002 1.39284758e-002
      4.95781824e-002 3.52798328e-002 5.48800454e-002 5.25583550e-002
      6.91291764e-002 2.86603346e-002 2.05183588e-002 2.79529486e-002
      1.76155586e-002 5.41437641e-002 3.04610170e-002 5.48859276e-002
      8.59599560e-002 6.85121417e-002 1.26074348e-002 1.11129740e-002
      2.90152505e-002 3.67862955e-002 5.94988205e-002 1.71720237e-002
      2.30373926e-002 2.31859740e-002 1.57796536e-002 1.07038561e-002
      1.43756540e-002 1.27448961e-002 1.02878688e-002 1.55046349e-002
      1.00559997e-003 6.75401371e-003 2.33218842e-003 5.59380930e-003
      5.67997899e-003 7.44673936e-003 2.21341327e-002 4.72276956e-002
      4.51877788e-002 1.17279440e-002 3.95192765e-003 2.99792923e-003
      2.22610217e-003 5.19779418e-003 6.66591013e-003 1.01243518e-002
      9.22402292e-002 2.71029979e-001 8.68417919e-002 1.28016854e-003
      1.69385492e-003 1.41865446e-003 1.04326494e-002 2.34411620e-002
      4.33574207e-002 1.17354795e-001 2.71029979e-001 9.66495350e-002
      6.78025559e-003 4.53656726e-003 6.50159642e-003 3.84841524e-002
      3.17089669e-002 2.42101979e-002 2.08936594e-002 5.24885133e-002
      4.82620336e-002 5.20923920e-002 3.24371867e-002 3.85064930e-002
      2.70847715e-002 2.54169535e-002 2.71237474e-002 1.96121186e-002
      6.80948570e-002 8.28462988e-002 5.42281158e-002 3.11888475e-002
      3.00789401e-002 3.27317305e-002 1.19874561e-002 1.77994426e-002
      1.55771188e-002 3.94148193e-002 4.41831276e-002 5.12936004e-002
      5.99930733e-002 2.47996598e-002 1.91402156e-002 8.65082908e-003
      7.00174458e-003 8.23185965e-003 1.45856002e-002 1.12698153e-002
      2.45276485e-002 1.50590204e-002 1.09290406e-002 3.64597095e-003
      5.80997951e-003 1.18500441e-002 1.81401353e-002 3.75107862e-002
      2.31619868e-002 1.00610144e-002 1.01488614e-002 6.16054377e-003
      3.31761013e-003 5.13983751e-003 2.05562059e-002 1.53412148e-001
      1.76863745e-001 2.17729248e-002 2.68515153e-003 5.32834325e-003
      3.90023272e-003 9.14193504e-003 8.03508796e-003 5.12840077e-002
      2.06294432e-001 1.80956274e-001 4.57989648e-002 1.10353641e-002
      4.91503580e-003 6.02276810e-003 4.09375466e-002 2.84776147e-002
      3.28230150e-002 3.71965170e-002 4.99850176e-002 3.36655602e-002
      3.29490080e-002 2.39444952e-002 4.29432839e-002 2.43162252e-002
      2.87491903e-002 3.86478864e-002 3.26999910e-002 4.27688174e-002
      4.29292433e-002 4.56611402e-002 2.14523114e-002 1.80896278e-002
      2.38853842e-002 1.21175377e-002 1.06102964e-002 9.05109849e-003
      1.90354902e-002 3.18125337e-002 3.23525481e-002 2.54300106e-002
      2.67701093e-002 4.75216750e-003 1.74001558e-003 3.55948135e-003
      5.91016700e-003 7.50603573e-003 1.36950528e-002 2.21896321e-002
      1.43421777e-002 4.07578424e-003 1.31407159e-003 3.55726201e-003
      7.54555268e-003 1.14628002e-002 8.94691981e-003 8.05686135e-003
      8.35770182e-003 5.95260924e-003 2.98426533e-003 1.32193102e-003
      4.21520742e-003 2.01529320e-002 9.17743072e-002 8.22468475e-002
      8.45769420e-003 1.65056600e-003 2.70485249e-003 1.14639802e-003
      2.24151392e-003 4.47115116e-003 2.21487004e-002 5.54930754e-002
      5.76675534e-002 2.15692036e-002 1.55921169e-002 5.48258983e-003
      1.58126606e-003 1.96122006e-002 4.24895808e-002 6.22975156e-002
      2.64459513e-002 2.88497396e-002 2.30866801e-002 1.39863268e-002
      5.75377932e-003 7.19969254e-003 3.78154516e-002 3.69919129e-002
      1.27051435e-002 5.08088805e-003 1.10063720e-002 9.83625650e-003
      8.97448044e-003 5.83360670e-003 2.08057445e-002 6.60078228e-003
      3.65305645e-003 3.56706628e-003 2.81251990e-003 6.75297482e-003
      9.04466864e-003 7.90492352e-003 5.99648245e-003 9.12979990e-003
      1.41337968e-003 1.16177218e-003 3.93865583e-003 4.92572226e-003
      4.08561435e-003 4.66354936e-003 3.11664701e-003 1.45293085e-003
      1.68312551e-003 2.78409780e-003 3.00275674e-003 3.34870745e-003
      2.61585996e-003 3.88116017e-002 7.44256098e-003 2.69873021e-003
      7.19785166e-004 4.95525252e-004 1.48795927e-002 1.05652940e-002
      6.72624353e-003 3.65314330e-003 7.95980543e-003 3.43774725e-003
      5.29804314e-003 5.25822490e-003 1.10629769e-002 9.87848360e-003
      3.09947692e-002 2.36479305e-002 3.43538634e-003 2.04864377e-003
      1.27142668e-003 2.48727901e-003 3.78826959e-003 8.73557758e-003
      7.82204047e-003 1.67017765e-002 1.87311117e-002 1.80895533e-002
      1.13479579e-002 4.07888647e-003 2.27566506e-003 8.50609504e-003
      9.37853567e-003 1.65355764e-002 2.00218037e-002 3.25519145e-002
      3.81167978e-002 2.09333654e-002 1.77502148e-002 7.44442036e-003
      5.15234517e-003 9.34021361e-003 9.57439840e-003 9.47508682e-003
      1.39545230e-002 6.87876018e-003 6.09269273e-003 1.40664652e-002
      1.22723803e-002 1.09237777e-002 9.81235877e-003 5.29879471e-003
      6.40582805e-003 1.18468134e-002 5.38559677e-003 1.94813695e-003
      1.70963322e-004 0. 0. 1.20055187e-003 1.37655661e-002
      6.89475518e-003 5.73164690e-003 7.71153299e-003 1.77172963e-002
      1.29175512e-002 7.20409071e-003 1.17975436e-002 2.34735310e-002
      4.60088775e-002 1.06234262e-002 6.02344284e-003 8.62666871e-003
      1.31109999e-002 1.62903387e-002 2.53083929e-002 3.69259827e-002
      6.92288429e-002 1.72851179e-002 1.42459413e-002 2.16659959e-002
      1.13160722e-002 1.15880892e-002 9.12409090e-003 2.41529997e-002
      5.30591831e-002 3.78952101e-002 3.87864299e-002 5.05741313e-002
      4.96578589e-002 3.27704400e-002 3.69293988e-002 9.20808688e-003
      9.55165550e-003 1.15884338e-002 1.73974540e-002 2.63741445e-002
      3.20306793e-002 3.41145471e-002 3.25140767e-002 9.25300941e-002
      7.10656792e-002 3.91404293e-002 7.60248303e-003 7.62622384e-003
      5.44165168e-003 8.44496768e-003 8.97863135e-003 1.46358861e-002
      2.46768724e-002 3.10591199e-002 3.48532312e-002 1.19786849e-002
      7.89914373e-003 3.50502715e-003 3.77159705e-003 9.11236275e-003
      1.84980258e-002 1.58969816e-002 4.96943621e-003 3.13801621e-003
      1.90123136e-003 1.23554817e-003 7.50766648e-003 8.74081068e-003
      1.35483332e-002 1.89563762e-002 5.27172945e-002 3.28430980e-002
      6.81854086e-003 4.51946072e-003 1.05203390e-002 1.45959137e-002
      3.96356359e-002 4.93021905e-002 4.89946082e-002 7.52774701e-002
      6.80624694e-002 2.21261829e-002 1.39405048e-002 1.51231121e-002
      1.43241603e-002 1.76481828e-002 1.60064120e-002 1.93579420e-002
      3.54192257e-002 1.86436772e-002 3.09124347e-002 4.67654057e-002
      2.74961907e-002 2.41480768e-002 2.04518419e-002 2.96685752e-002
      4.57611270e-002 1.01379931e-001 4.06243503e-002 1.83949471e-002
      1.44385276e-002 1.54012358e-002 1.97128039e-002 1.99158713e-002
      1.64190512e-002 2.36075781e-002 5.97102493e-002 4.32323925e-002
      3.89302447e-002 3.25254798e-002 1.83415227e-002 1.23245120e-002
      1.09928437e-002 1.24795828e-002 1.43232876e-002 3.34126614e-002
      2.85780784e-002 3.18356268e-002 4.15625460e-002 2.60610133e-002
      4.59385384e-003 4.41080378e-003 5.88372070e-003 8.03163368e-003
      7.68974749e-003 1.04878210e-002 2.62230802e-002 1.22725377e-002
      4.86173108e-003 7.03144586e-004 1.93940976e-003 2.27883738e-002
      4.15048823e-002 1.06758922e-001 2.72446945e-002 1.45682087e-002
      1.44831613e-002 3.08953621e-003 6.18848996e-003 1.78326257e-002
      4.22330946e-002 5.16771488e-002 1.14567503e-001 1.24569602e-001
      7.45852515e-002 2.94118077e-002 6.45280629e-003 1.57993939e-002
      1.39521910e-002 2.43120380e-002 6.29687011e-002 4.94720824e-002
      3.20063457e-002 3.69692631e-002 2.42735893e-002 1.71149187e-002
      3.60169783e-002 4.03855331e-002 4.34966795e-002 4.52263132e-002
      7.59934857e-002 2.56583225e-002 2.65230723e-002 1.63980238e-002
      2.26775035e-002 9.85550508e-002 1.58496812e-001 1.40391082e-001
      5.54394796e-002 3.69015560e-002 5.12492610e-003 8.69686622e-003
      1.75514575e-002 3.67122591e-002 1.40702084e-001 2.25526318e-001
      1.20021999e-001 2.53634155e-002 2.13067438e-002 1.43420333e-002
      1.55958394e-002 4.39648442e-002 6.81650713e-002 3.72772850e-002
      5.27172759e-002 2.79657822e-002 8.15946888e-003 3.32476646e-002
      4.17800806e-002 3.14633884e-002 3.95339988e-002 4.45300303e-002
      6.90280227e-004 7.35727604e-004 1.09484028e-002 3.29735912e-002
      1.69594213e-001 1.55748855e-002 7.57079280e-004 1.51668664e-003
      1.03895972e-003 4.26431745e-003 4.03967500e-003 2.03467607e-002
      7.64787495e-002 1.55083671e-001 3.88504080e-002 1.53917745e-002
      6.50727190e-003 3.92798800e-003 2.82549579e-002 3.36072892e-002
      4.29570712e-002 2.36107577e-002 2.03354638e-002 1.01702372e-002
      1.25916321e-002 9.16968472e-003 2.05239616e-002 7.94100612e-002
      1.39368981e-001 2.23120138e-001 1.14818394e-001 2.85203978e-002
      1.47538632e-003 3.40567133e-003 5.49015170e-003 1.40965721e-002
      1.50109723e-001 2.25526318e-001 2.25526318e-001 2.22096235e-001
      4.41656448e-002 1.57343934e-003 2.74189911e-003 3.77518195e-003
      1.78452376e-002 1.28452361e-001 1.82405114e-001 1.09833650e-001
      4.91352901e-002 4.75031137e-002 1.39742186e-002 1.30084269e-002
      2.79793311e-002 4.47919406e-002 1.42347058e-002 2.26998460e-002
      1.51307099e-002 8.79530050e-003 5.49000017e-002 8.76906291e-002
      5.98808080e-002 2.97871605e-002 2.29976848e-002 4.36135626e-004
      2.05437114e-004 1.07887900e-003 1.18364841e-002 1.14404768e-001
      1.30880186e-002 1.66212709e-003 3.00633430e-004 4.36135626e-004
      2.74978601e-003 1.07837154e-003 2.55154772e-003 1.35402540e-002
      7.18287602e-002 2.65760794e-002 2.20632944e-002 1.03573296e-002
      3.64076253e-003 1.04833562e-002 1.35876210e-002 3.20478715e-002
      3.58678512e-002 2.74497196e-002 9.07855295e-003 1.05144568e-002
      6.91957679e-003 9.43628419e-003 8.90459120e-003 2.69465819e-002
      1.48361564e-001 2.05077350e-001 8.44810903e-002 2.18622573e-002
      4.65944968e-003 4.34779562e-003 1.52272324e-003 2.55397838e-002
      5.60351722e-002 1.06374517e-001 1.07717685e-001 5.85860610e-002
      4.76921909e-002 2.16057375e-002 1.34178316e-002 7.49521842e-003
      5.75027578e-002 4.19510342e-002 5.13141491e-002 4.55453582e-002
      3.03831454e-002 3.81556228e-002 4.70161773e-002 4.28666733e-002
      8.02428946e-002 9.57061164e-003 4.94666910e-003 6.54739933e-003
      1.03847589e-002 2.40396801e-002 5.09010404e-002 3.05743944e-002
      1.47910928e-002 2.17638984e-002 2.58293381e-004 8.50907003e-004
      5.20581845e-003 1.72828082e-002 4.50775363e-002 1.11875543e-002
      2.64655426e-003 7.39240641e-005 2.71768920e-004 3.24166170e-003
      7.47103337e-003 1.06364619e-002 2.15716008e-002 2.40466017e-002
      1.49122505e-002 6.45400397e-003 3.78262624e-003 3.17592849e-003
      3.97535926e-003 9.01383290e-004 6.20280672e-003 1.70185007e-002
      2.43031476e-002 1.23169515e-002 9.00668837e-003 8.29093810e-003
      4.78336262e-003 2.76987604e-003 2.95393955e-004 2.32455526e-002
      5.20802177e-002 3.22836488e-002 2.97011752e-002 2.36992035e-002
      3.45562510e-002 1.69121325e-002 1.15180472e-002 1.82290077e-002
      4.00280245e-002 3.86367589e-002 8.56652185e-002 3.79730053e-002
      2.69465838e-002 2.94225588e-002 2.15315297e-002 3.46941315e-002
      2.44578328e-002 2.85740625e-002 2.64263544e-002 2.65441071e-002
      2.05758642e-002 2.86713894e-002 5.22203222e-002 1.14933394e-001
      4.61313268e-003 3.54617951e-003 3.63681209e-003 6.09720778e-003
      1.12474542e-002 2.34854650e-002 1.82596631e-002 2.40700096e-002
      2.26540882e-002 6.79737609e-003 4.08751564e-003 3.08642816e-003
      2.25765770e-003 6.16285775e-004 3.76974465e-004 1.83061871e-003
      7.65504083e-003 1.87985897e-002 9.18579102e-003 2.89911870e-003
      1.36374228e-003 1.29844047e-004 7.17883056e-004 1.31510512e-003
      4.18458739e-003 3.83362398e-002 5.02608381e-002 2.12632436e-002
      6.37873821e-003 2.42497749e-003 1.68878061e-003 2.52593262e-003
      7.56376935e-003 1.88784283e-002 3.81622910e-002 4.28081304e-002
      6.63136691e-002 2.12131087e-002 2.09246320e-003 1.47287466e-003
      7.55699526e-004 1.68747606e-003 6.47987938e-003 2.12352406e-002
      4.86225411e-002 2.76080742e-002 1.72816608e-002 1.40420953e-002
      3.47632589e-003 2.69396394e-003 4.35362151e-003 1.22971982e-002
      2.23875511e-002 2.75863167e-002 1.32641299e-002 7.19786528e-003
      3.87938460e-003 1.02081895e-003 1.12286641e-003 7.68364361e-003
      1.24001792e-002 2.69832406e-002 3.08294613e-002 4.05097194e-003
      1.56543229e-003 0. 0. 7.51756190e-004 1.02422684e-002
      1.70210376e-002 1.22891897e-002 1.01569081e-002 4.34589293e-003
      5.53644681e-003 6.74847420e-003 5.48134744e-003 5.87618537e-003
      9.04326420e-003 6.52292231e-003 4.28894395e-003 6.71992823e-003
      7.90457148e-003 3.07616149e-003 3.09055462e-003 2.28732778e-003
      2.65525635e-002 4.30768654e-002 3.17835212e-002 3.55093181e-002
      2.90819500e-002 2.78099254e-002 1.04184700e-002 1.20172221e-002
      1.29465237e-002 4.51499745e-002 4.16823067e-002 4.34532166e-002
      3.45031731e-002 4.26017195e-002 3.84876616e-002 3.17217074e-002
      5.28485589e-002 6.01088852e-002 4.44833152e-002 1.48885744e-002
      2.04041246e-002 3.08287684e-002 3.41985747e-002 2.12678369e-002
      5.21784686e-002 6.25957027e-002 4.64133359e-002 3.64520662e-002
      2.13519912e-002 2.06075665e-002 2.68354826e-002 2.53400616e-002
      1.67093016e-002 1.23523418e-002 1.64474640e-002 5.10449335e-003
      1.14346799e-002 1.53700653e-002 2.40178276e-002 4.21253517e-002
      4.28196602e-002 7.26195611e-003 1.69440696e-003 7.06632738e-004
      1.87306840e-004 6.44407608e-003 2.12065075e-002 2.80344859e-002
      2.82179452e-002 2.17839554e-002 2.01044828e-002 1.24511765e-002
      5.81185240e-003 2.44782679e-003 1.07079176e-002 1.39250858e-002
      1.68442111e-002 1.04885343e-002 1.20263901e-002 1.10837564e-001
      3.53628397e-002 1.34566110e-002 8.11752584e-003 1.54590430e-002
      2.31149383e-002 1.77259874e-002 1.41244130e-002 7.07662776e-002
      6.37116507e-002 3.01903002e-002 1.55065209e-002 4.16229852e-002
      6.54776469e-002 1.99729949e-002 2.95591280e-002 5.52003719e-002
      7.84878209e-002 2.02493779e-002 3.49080786e-002 6.26644492e-002
      1.10016927e-001 1.65950432e-001 5.02785072e-002 4.17410694e-002
      2.30207965e-002 1.63437221e-002 6.99105337e-002 6.21019527e-002
      5.30952625e-002 1.08645335e-001 1.43635690e-001 5.92559092e-002
      3.09968442e-002 2.75779497e-002 3.30447629e-002 4.44475040e-002
      4.11447026e-002 2.87296306e-002 2.44899988e-002 4.87594120e-002
      2.74010301e-002 4.04093452e-002 4.27724533e-002 3.09947729e-002
      1.26458108e-002 6.54357765e-003 2.78673694e-003 2.70239846e-003
      1.32625252e-002 3.12278345e-002 3.66538316e-002 7.97421783e-002
      3.27788256e-002 3.24857943e-002 1.96668748e-002 1.12592177e-002
      9.31757409e-003 2.35273745e-002 1.95377357e-002 3.78637053e-002
      2.58400999e-002 1.80444811e-002 8.28695446e-002 7.47894049e-002
      4.54305559e-002 2.91518047e-002 2.83175856e-002 2.66883112e-002
      2.88848002e-002 2.45089270e-002 3.48434299e-002 1.34259194e-001
      1.62716717e-001 5.09794913e-002 1.54803563e-002 1.66531466e-002
      3.10571603e-002 2.82927826e-002 6.85541034e-002 9.64562222e-002
      8.74365717e-002 5.79616465e-002 4.17474397e-002 3.26715484e-002
      5.05811051e-002 3.46090011e-002 5.85839972e-002 9.72948670e-002
      1.03251353e-001 1.42115206e-001 7.95093700e-002 4.29531932e-002
      5.35910875e-002 7.50849396e-002 6.76117539e-002 1.01201192e-001
      9.59994495e-002 9.35157314e-002 2.98083443e-002 1.80786978e-002
      1.70415416e-002 3.69538963e-002 9.60339308e-002 1.29111350e-001
      2.02629671e-001 1.68521732e-001 3.73571739e-002 1.81622598e-002
      1.04498984e-002 1.09168552e-002 2.22653449e-002 5.00289202e-002
      5.67416884e-002 7.25493655e-002 7.43785724e-002 3.51247489e-002
      1.60572082e-002 7.16955680e-003 4.79504233e-003 5.02100796e-004
      2.41048411e-002 7.21418187e-002 4.75807600e-002 1.86857209e-002
      1.48022110e-002 6.58090562e-002 7.98909888e-002 3.53449732e-002
      1.23427901e-002 5.32932803e-002 1.10227026e-001 6.57784939e-002
      2.45192014e-002 1.70666371e-002 1.67227104e-001 1.65323094e-001
      3.91875431e-002 7.24310335e-003 2.18705162e-002 6.31876290e-002
      1.10777162e-001 6.81552514e-002 6.50669113e-002 6.38808236e-002
      5.24243787e-002 5.03007397e-002 1.37030166e-002 1.46998726e-002
      5.79350069e-002 1.32552981e-001 1.18804976e-001 9.44698229e-002
      1.50594145e-001 6.72553703e-002 3.82496268e-002 2.34141201e-002
      1.68500990e-002 1.50564155e-002 3.26563753e-002 5.80339991e-002
      1.30912602e-001 7.42481425e-002 4.12735194e-002 1.41523127e-002
      5.47563331e-003 2.06506141e-002 3.63112763e-002 1.16148263e-001
      1.50717244e-001 9.74378660e-002 2.15268116e-002 8.29519890e-003
      5.94875263e-003 3.39219579e-003 1.06796464e-002 1.93593390e-002
      1.32870823e-001 1.85339823e-001 1.00054525e-001 3.55160609e-003
      1.21136126e-003 9.68176057e-004 2.33557019e-002 6.58999085e-002
      4.37195227e-002 1.03136310e-002 1.05623780e-002 6.05886476e-003
      1.67935283e-003 8.72258679e-004 5.86237013e-003 3.51972319e-002
      7.16927275e-002 1.18385889e-001 5.03828041e-002 2.20053997e-002
      8.79490376e-003 1.06090717e-002 1.21352903e-003 1.03699649e-002
      2.58629937e-002 9.15453061e-002 8.57687742e-002 5.21607511e-002
      2.63899900e-002 1.73499770e-002 6.04878925e-002 4.28775921e-002
      3.75182256e-002 1.32982563e-002 2.88929269e-002 2.10145526e-002
      3.13399099e-002 3.55495922e-002 6.10155053e-002 6.68982640e-002
      3.50229964e-002 3.30639631e-002 2.14643553e-002 9.08562727e-003
      1.31948385e-002 1.96534786e-002 2.57294606e-002 4.58999239e-002
      1.87842194e-002 1.72998309e-002 1.79102570e-002 9.69258323e-003
      1.24872755e-002 1.14220316e-002 1.91810578e-002 2.23285165e-002
      2.07402054e-002 1.81259494e-002 7.29308324e-003 6.33912859e-003
      6.45816140e-003 6.18322333e-003 2.20487220e-003 1.49927763e-002
      2.77169701e-002 2.79834252e-002 0. 0. 3.75370542e-003
      2.41332073e-002 2.88024824e-002 9.44287051e-003 2.47740583e-003
      2.30123929e-004 0. 9.95677779e-004 1.22612610e-003 8.46987031e-003
      3.25595252e-002 3.63520682e-002 2.48926375e-002 5.24495635e-003
      1.17916602e-003 9.69490677e-004 2.72016972e-003 3.12216417e-003
      9.32084490e-003 1.84929390e-002 3.39939892e-002 4.85659949e-002
      2.25713775e-002 7.73427822e-003 4.00260044e-003 1.10721970e-002
      2.01111156e-002 2.20284276e-002 1.01980362e-002 1.08214589e-002
      1.89328473e-002 2.13134009e-002 9.47550312e-003 9.92190465e-003
      1.05993887e-002 1.03753060e-002 1.69658922e-002 9.24593955e-003
      1.07145961e-002 1.16554480e-002 2.16866545e-002 2.00057216e-002
      1.01561276e-002 5.04610687e-003 4.92442679e-003 4.37240954e-003
      2.29176483e-003 1.33212321e-002 8.76207370e-003 9.62097291e-003
      8.46397132e-003 7.31903501e-003 4.36735898e-003 2.51906551e-003
      2.93314597e-003 1.19995349e-003 2.79659987e-003 1.03688391e-003
      2.36945995e-003 1.73882989e-003 3.12302192e-003 4.03725822e-003
      4.45473380e-003 5.70105202e-003 4.55998350e-003 2.97355372e-003
      1.81637763e-003 7.32538337e-003 6.85330341e-003 2.67680502e-003
      5.25356364e-003 1.54691357e-002 2.70666853e-002 2.18828581e-002
      1.34476507e-002 6.33393694e-003 3.75513476e-003 1.60077272e-003
      2.87767337e-003 8.37084558e-003 9.63642262e-003 1.19429752e-002
      2.28725355e-002 2.40060501e-002 7.66635081e-003 1.40000107e-002
      7.48429308e-003 5.97806647e-003 1.17289461e-002 6.24340260e-003
      8.70389026e-003 7.89024867e-003 2.27097217e-002 1.88485589e-002
      1.56457517e-002 6.58414653e-003 1.33857504e-002 4.92485287e-003
      1.70412809e-002 1.61033180e-002 1.68672781e-002 1.53495930e-002
      8.49069562e-003 3.60864052e-003 1.16691191e-003 2.56344047e-003
      2.51815282e-003 3.21614998e-003 7.10976496e-003 2.32617110e-002
      2.16388293e-002 4.90867672e-003 3.78784887e-003 2.60825944e-003
      2.39609601e-003 5.62287343e-004 2.49056309e-003 1.76348295e-002
      5.47347590e-002 2.37763338e-002 1.35772896e-003 2.93956749e-004
      3.75222677e-004 2.21199021e-004 2.36403197e-003 1.36326940e-003
      1.20972318e-003 3.81723768e-003 1.83285400e-002 2.07685530e-002
      2.50516646e-002 1.04675265e-002 2.68722815e-003 5.41542470e-003
      6.29770663e-003 7.18943449e-003 1.93985179e-002 4.54237312e-002
      6.90164417e-002 3.68278027e-002 1.04274796e-002 6.68642111e-003
      3.30386832e-002 2.37033814e-002 1.24522680e-002 1.76152531e-002
      1.89317819e-002 1.66408606e-002 3.07963863e-002 3.87065522e-002
      5.69039434e-002 4.52961475e-002 4.84360419e-002 3.57654206e-002
      3.24497335e-002 4.35925312e-002 1.66378971e-002 2.05418244e-002
      2.59002820e-002 5.70393167e-002 3.47385220e-002 6.58581778e-002
      3.86030041e-002 2.32033562e-002 1.71315838e-002 7.41724856e-003
      1.49898874e-002 2.50923336e-002 2.57818047e-002 2.73524579e-002
      1.38896639e-002 2.01599263e-002 4.54737842e-002 4.09550667e-002
      1.03542386e-002 1.71718895e-002 2.10134275e-002 2.35494915e-002
      3.16980900e-003 3.75921838e-003 2.18610130e-002 1.00829802e-001
      8.81438255e-002 9.01394710e-003 5.56950970e-003 9.63020429e-004
      1.83231803e-003 5.68737043e-004 4.41120384e-004 1.55581351e-004
      3.99953779e-003 2.83854418e-002 5.27418964e-002 7.95806348e-002
      2.40994785e-002 1.36052712e-003 1.71302631e-002 1.65755004e-002
      1.74585581e-002 2.05613617e-002 9.49271470e-002 1.47045404e-001
      9.54589322e-002 3.65374722e-002 1.02973869e-002 4.63913791e-002
      3.27425376e-002 1.85196269e-002 3.30422223e-002 1.11266084e-001
      1.54254571e-001 8.57044309e-002 3.15581523e-002 4.14636731e-002
      1.43994810e-002 1.79129932e-002 3.95424739e-002 5.64943738e-002
      1.01123922e-001 3.29327583e-002 4.21670340e-002 4.46228758e-002
      2.63118614e-002 2.53703166e-002 3.80423106e-002 3.88765112e-002
      5.53708039e-002 7.50221536e-002 3.35681438e-002 2.73296311e-002
      2.82537770e-002 3.99619937e-002 1.62896682e-002 1.01345899e-002
      1.79459620e-002 6.56398758e-002 1.54248700e-001 5.34569658e-002
      2.38708965e-002 1.32968090e-002 1.89002492e-002 1.35446480e-003
      1.68224645e-003 8.81052203e-003 6.99556693e-002 1.70164645e-001
      4.23273593e-002 1.63538437e-002 8.38112435e-004 3.66150343e-004
      8.42418522e-003 3.52319493e-003 1.46442349e-003 3.31210601e-003
      1.12261334e-002 4.86734100e-002 1.00328729e-001 5.02551608e-002
      1.01450849e-002 1.36252180e-001 8.22404251e-002 5.20551391e-002
      3.58323455e-002 3.01549379e-002 3.83265316e-002 4.91771251e-002
      5.91756441e-002 1.08040512e-001 5.63093796e-002 1.00637130e-001
      9.83603746e-002 1.20598227e-001 1.30035356e-001 6.98733851e-002
      2.79153623e-002 8.93011224e-003 4.66320962e-002 1.60801429e-002
      6.29118979e-002 8.61762166e-002 8.63049477e-002 1.82310686e-001
      5.57885319e-002 3.13977450e-002 2.88051404e-002 1.25784734e-002
      6.16451241e-002 7.77470544e-002 7.83408210e-002 7.06196427e-002
      1.27692893e-001 3.10560782e-002 3.44304070e-002 4.94397283e-002
      6.58829361e-002 4.20562513e-002 2.27650367e-002 2.28340589e-002
      5.47349490e-002 9.66429487e-002 3.93147580e-002 3.48661467e-002
      4.37304042e-002 9.26875323e-002 1.52662219e-002 1.23382937e-002
      2.85025723e-002 1.25327617e-001 1.74202189e-001 4.19033691e-002
      1.64106488e-002 1.67806924e-003 5.86008932e-003 3.69249508e-002
      1.39906211e-002 1.20163905e-002 1.56950019e-002 4.13393509e-003
      1.76267028e-002 2.29179207e-002 2.92378236e-002 4.46560867e-002
      1.02998912e-001 1.40789658e-001 6.41030222e-002 7.42898928e-003
      5.04688174e-003 4.04497329e-003 7.51663279e-003 1.76703855e-002
      7.13117346e-002 9.95555595e-002 1.26358986e-001 9.82727036e-002
      1.27483949e-001 8.71229768e-002 2.04016082e-002 6.83821877e-003
      1.12582790e-002 7.46806115e-002 1.34580042e-002 2.06413195e-002
      3.52593176e-002 1.23114042e-001 1.71816856e-001 5.49786761e-002
      3.38989496e-002 2.69725006e-002 1.52710639e-002 2.94490345e-002
      1.76532995e-002 3.51936147e-002 8.72106180e-002 9.24643278e-002
      4.08253409e-002 7.05635548e-002 1.19731091e-001 7.38905072e-002
      2.60706041e-002 1.78087372e-002 2.59444304e-002 4.61484678e-002
      8.56002346e-002 2.79522426e-002 4.59309854e-002 4.27251719e-002
      3.61460187e-002 2.36319448e-003 2.65625189e-003 5.00729820e-003
      7.03159049e-002 2.26773918e-001 5.34552447e-002 3.31343990e-003
      1.90584396e-003 1.66834088e-003 2.43252162e-002 1.18830008e-002
      6.97242143e-003 4.24048863e-003 3.66145885e-003 2.13993038e-003
      8.14050622e-003 2.19501555e-002 3.24495621e-002 7.53908679e-002
      6.66082054e-002 3.99083383e-002 1.72013361e-002 3.47184367e-003
      6.16926292e-004 2.35662051e-003 1.16923954e-002 3.79121304e-002
      4.74706963e-002 3.60747464e-002 1.90233979e-002 1.28577892e-002
      3.68189961e-002 1.51739633e-002 1.20228445e-002 3.10261752e-002
      4.79870513e-002 1.03714745e-002 9.10096336e-003 8.73322133e-003
      2.62417253e-002 7.07761347e-002 6.12513013e-002 3.82115692e-002
      6.38895901e-003 1.01428162e-002 3.79636022e-003 4.89710458e-003
      1.47554940e-002 1.15522549e-001 1.57697320e-001 4.05542180e-002
      1.31916357e-002 2.36884179e-003 4.59162658e-003 6.55856403e-003
      7.70755718e-003 1.31599130e-002 4.56082225e-002 6.81868270e-002
      2.88204178e-002 1.42460531e-002 2.75595952e-002 1.39221782e-002
      1.36451435e-003 1.97245390e-003 2.42965501e-002 5.03145382e-002
      8.64805654e-002 5.35366125e-002 6.42305939e-003 3.66274128e-003
      1.38542743e-003 3.14673362e-003 6.00080425e-003 3.31975124e-003
      2.24375562e-003 1.82655500e-003 1.16573030e-003 2.10098410e-003
      1.80792145e-003 1.17769837e-003 6.45147124e-003 1.22695267e-002
      9.93383024e-003 8.76727886e-003 6.30599493e-003 1.85871485e-003
      2.13666470e-003 1.02265808e-003 1.96412439e-003 6.31129602e-003
      8.74144118e-003 7.17515545e-003 1.26872873e-002 1.74984895e-002
      5.17761288e-003 6.44912012e-003 4.11099754e-003 4.84469533e-003
      3.38150305e-003 1.25589652e-003 4.48500505e-003 1.24957925e-002
      2.95017175e-002 2.68950313e-002 2.84913611e-002 3.73460655e-003
      4.16840892e-003 0. 0. 2.85572396e-003 1.72663908e-002
      6.28731623e-002 5.31798378e-002 3.09527945e-002 2.94612395e-003 0.
      6.66935416e-003 6.98739290e-003 1.01046739e-002 2.48926356e-002
      3.91319133e-002 1.54607641e-002 8.79982859e-003 2.37971172e-003
      3.41491518e-003 2.97834468e-003 3.52732488e-003 1.36565203e-002
      2.53918208e-002 4.27465029e-002 1.23033803e-002 1.54040777e-003
      2.07128352e-003 1.31763890e-003 1.02484762e-003 1.93331472e-003
      6.82587922e-003 1.51414024e-002 1.28359478e-002 2.26557534e-003
      1.05723320e-003 5.77243220e-004 7.45592872e-004 3.80473270e-004
      1.22919097e-003 4.06345818e-003 4.02120687e-002 7.20519125e-002
      2.18012426e-002 4.14463738e-003 5.70181233e-004 4.64751647e-005
      5.96369291e-003 8.29947740e-003 1.37318280e-002 3.47097591e-002
      7.52335861e-002 3.76900397e-002 1.54632227e-002 4.98308847e-003
      7.02579599e-003 9.45987925e-003 9.86701809e-003 6.34999480e-003
      1.08338902e-002 3.04942876e-002 7.65002072e-002 6.73576519e-002
      3.16415466e-002 2.06106044e-002 1.30003495e-002 1.37316398e-002
      1.63829699e-002 8.24216008e-003 4.41083312e-003 1.40362503e-002
      1.77947544e-002 2.72164457e-002 1.96095333e-002 1.56243267e-002
      1.27076758e-002 7.64666637e-003 4.55955975e-003 1.69285852e-003
      1.45175029e-003 3.28735937e-003 7.36704003e-003 1.01432111e-002
      2.15147948e-003 2.72943452e-003 2.67585320e-003 2.90678255e-003
      5.65534318e-003 2.24815821e-003 2.02157884e-003 1.07993430e-003
      1.58524828e-003 4.80356487e-003 5.75721636e-003 1.67779438e-002
      3.48183624e-002 2.97125299e-002 9.09182709e-003 1.18421402e-003
      1.47537095e-003 2.81838840e-003 1.59780728e-003 2.85469973e-003
      8.14406667e-003 4.72385995e-002 1.25589713e-001 5.81448153e-002
      5.26569858e-002 9.49286763e-003 1.00021600e-003 5.52009651e-003
      5.24395052e-003 1.62562281e-002 5.52318469e-002 1.07633449e-001
      1.04180627e-001 8.72058198e-002 1.52098527e-002 5.93854534e-003
      1.30405435e-002 2.01668460e-002 3.34796533e-002 6.25045747e-002
      8.60809088e-002 6.00881688e-002 3.25175785e-002 1.27281472e-002
      1.80495996e-002 1.22305434e-002 1.53162945e-002 3.44153494e-002
      3.87221873e-002 5.34227304e-002 2.01439578e-002 9.82652511e-003
      1.69467367e-002 1.69463977e-002 1.49354860e-002 1.07851094e-002
      1.89015567e-002 3.19957510e-002 2.12635174e-002 1.32503947e-002
      8.84858053e-003 1.75129771e-002 1.60171129e-002 2.06896337e-003
      2.46427953e-003 5.55829564e-003 1.24665136e-002 1.37688108e-002
      2.41934205e-003 1.87182194e-003 1.61210750e-003 2.04162346e-003
      1.97477750e-002 1.44212972e-002 7.05842627e-003 9.52109322e-003
      3.91913578e-002 4.48630564e-002 3.82713042e-002 2.73785945e-002
      1.11656170e-002 1.39348768e-002 1.23044662e-002 8.59511364e-003
      7.47749396e-003 6.36492297e-002 1.56908184e-001 1.23613186e-001
      4.82426062e-002 1.22986026e-002 1.64845157e-002 1.32572930e-002
      2.12939251e-002 3.88626158e-002 1.93255275e-001 2.40128160e-001
      1.85838625e-001 7.17837214e-002 1.98714919e-002 5.24464957e-002
      8.19065720e-002 1.14647172e-001 1.18318111e-001 6.82542995e-002
      3.64966169e-002 4.06842008e-002 4.43695895e-002 4.42646146e-002
      3.71944122e-002 3.56919020e-002 7.84793347e-002 5.62961213e-002
      3.06998808e-002 1.30523210e-002 7.33084604e-003 2.41887849e-002
      4.07004617e-002 4.78934273e-002 2.67011560e-002 2.82695405e-002
      2.85134222e-002 1.40599674e-002 1.87157672e-002 1.97547469e-002
      4.38935198e-002 5.06536104e-002 2.22707037e-002 1.54267242e-002
      5.20023378e-003 1.12445746e-002 1.66485310e-002 5.13143511e-003
      7.58274598e-003 1.16863921e-002 1.30759804e-002 2.15452965e-002
      1.20256487e-002 1.39813405e-003 2.33165408e-003 2.49932688e-002
      6.32010624e-002 6.94431141e-002 3.71243097e-002 2.07913686e-002
      1.78368911e-002 1.73095372e-002 4.85917628e-002 1.09155633e-001
      2.38300815e-001 1.39175192e-001 6.36202693e-002 3.02518010e-002
      2.11936943e-002 1.88276432e-002 3.54023948e-002 9.84124094e-002
      8.37066844e-002 1.76615402e-001 2.21263990e-001 8.87677670e-002
      4.13927063e-002 2.89207511e-002 8.81249160e-002 1.40226558e-001
      6.72261342e-002 7.00801015e-002 3.38062309e-002 3.13030407e-002
      4.68612127e-002 6.33214489e-002 6.55942559e-002 4.28591929e-002
      2.58368179e-002 3.61523703e-002 2.53237467e-002 4.19999249e-002
      3.32133323e-002 7.49044195e-002 9.37503353e-002 6.71925321e-002
      3.31498235e-002 1.33221140e-002 2.53558625e-002 2.93480270e-002
      2.97202673e-002 2.80377902e-002 3.82190645e-002 3.61031853e-002
      3.57715711e-002 1.37963183e-002 1.07737659e-002 9.21957660e-003
      4.21483023e-003 1.18553778e-002 7.65251089e-003 1.04856184e-002
      1.00622615e-002 1.18194642e-002 4.44489997e-003 9.57410503e-003
      2.23988425e-002 3.18887755e-002 6.63039684e-002 4.05709706e-002
      3.06995735e-002 2.20007561e-002 1.06542921e-002 2.45904922e-003
      1.20767932e-002 3.65291052e-002 1.61456168e-001 2.40128160e-001
      1.21092752e-001 1.32107344e-002 5.02351671e-003 3.32946680e-003
      3.08119915e-002 2.28094161e-002 3.77449766e-002 6.49298728e-002
      1.62338436e-001 1.15684107e-001 4.37781736e-002 1.96044575e-002
      3.27887945e-002 3.53860594e-002 2.24234667e-002 3.29958051e-002
      1.93533115e-002 6.37833625e-002 1.39586171e-002 2.24721618e-002
      1.24614546e-002 3.75504680e-002 5.09943925e-002 3.33957747e-002
      3.21669243e-002 2.79334188e-002 7.22637400e-002 5.95633239e-002
      5.63740470e-002 4.87408936e-002 6.68255836e-002 8.27483833e-002
      5.38379587e-002 5.06121926e-002 4.34558019e-002 6.51047602e-002
      7.10541680e-002 4.58189771e-002 6.45330772e-002 6.23577461e-002
      7.86749180e-003 7.33774016e-003 1.09227076e-002 3.76187172e-003
      1.03425039e-002 1.40589811e-002 1.34110041e-002 8.98220483e-003
      9.82294045e-003 9.06179543e-004 6.38944795e-003 4.38240655e-002
      7.02633634e-002 5.41186444e-002 7.57038128e-003 1.51537813e-003
      1.83136633e-003 1.11373339e-003 5.90352016e-003 1.18292952e-002
      6.98985830e-002 1.17688134e-001 9.67137292e-002 1.72474179e-002
      6.90769684e-003 3.62675264e-003 2.62522069e-003 2.85593662e-002
      6.52042264e-003 1.69374887e-002 3.36753540e-002 6.22765124e-002
      4.16976810e-002 3.12845521e-002 4.38714847e-002 6.07844405e-002
      1.35628786e-002 7.56579265e-003 1.82994232e-002 1.70708075e-002
      8.06764364e-002 2.51145661e-002 1.37009658e-002 1.48816975e-002
      2.42681652e-002 1.71071403e-002 1.77197568e-002 2.05063466e-002
      2.06359699e-002 4.81273420e-002 2.62656044e-002 2.36072168e-002
      1.74281728e-002 1.84707381e-002 1.94130372e-002 1.85550842e-002
      2.01292373e-002 1.65597778e-002 2.96487994e-002 2.14830004e-002
      1.42980991e-002 1.74259096e-002 1.30686099e-002 4.10680100e-003
      2.71543697e-003 5.59129938e-003 2.88792280e-003 5.24461502e-003
      6.02111081e-003 5.70792099e-003 4.49601281e-003 6.53329771e-003
      4.09246143e-003 7.65149295e-003 3.73736732e-002 3.27309892e-002
      1.95530076e-002 2.75379885e-003 1.22162816e-003 1.84786069e-004
      5.97310136e-005 8.12434964e-003 9.06826090e-003 2.58233249e-002
      1.71276182e-002 1.90114472e-002 3.23251332e-003 3.15720169e-003
      4.69690422e-003 5.35339070e-003 7.06428383e-003 1.04732402e-002
      2.76335757e-002 1.56519730e-002 1.38288690e-002 4.33362508e-003
      2.88154394e-003 3.84952896e-003 7.54953269e-003 5.73485438e-003
      7.04905903e-003 2.02325471e-002 1.25466930e-002 2.01296192e-002
      5.75205032e-003 3.42707592e-003 2.91176862e-003 5.77354152e-003
      6.84387563e-003 5.96628571e-003 6.37835637e-003 2.37870030e-003
      7.47820130e-003 3.36578046e-003 1.14221834e-002 6.15114532e-003
      6.79791672e-003 2.14861799e-003 3.45015828e-003 8.58141482e-003
      3.30444658e-003 7.19454698e-003 1.14419800e-003 5.92001434e-003
      3.69026652e-003 2.20295833e-003 2.13077758e-003 4.94580623e-003
      6.69764914e-003 4.14849306e-003 1.14560407e-003 1.05089927e-003
      2.76126061e-003 1.54945580e-003 9.46926768e-004 4.84209799e-004
      2.94986414e-004 1.17024151e-003 5.22418600e-003 2.23030485e-002
      1.08505376e-002 1.84851780e-003 4.33746492e-003 1.51543459e-003
      1.67715852e-003 1.12034695e-003 1.86345191e-003 4.25169384e-003
      1.84156969e-002 8.11699778e-003 7.80306989e-003 1.03242835e-002
      3.07891448e-003 4.39657969e-003 3.17320228e-003 4.05869260e-003
      3.42579302e-003 1.13233775e-002 1.14468588e-002 5.63773327e-003
      5.75532997e-003 3.55511112e-003 1.16302376e-003 9.63741040e-004
      3.95222194e-003 1.84323769e-002 4.65161391e-002 2.41753776e-002
      7.11177802e-003 2.64746719e-003 1.22872635e-003 1.09723667e-002
      5.88618265e-003 6.70866296e-003 5.72626293e-002 1.64457500e-001
      6.10049441e-002 1.16269877e-002 1.49207711e-002 1.33475773e-002
      2.66593955e-002 1.36875566e-002 8.32444895e-003 2.84586996e-002
      5.54799549e-002 5.11711128e-002 3.16109769e-002 3.51339504e-002
      3.23121175e-002 1.92219988e-004 5.36980166e-004 7.10160099e-003
      2.76640076e-002 6.56415299e-002 1.20767634e-002 1.35487027e-003
      4.81942814e-004 2.49253062e-004 2.83490610e-003 2.99331686e-003
      7.43275369e-003 1.18494043e-002 2.72268560e-002 4.50915843e-003
      5.82525972e-003 4.18385817e-003 2.07572733e-003 5.75799216e-003
      8.38337559e-003 1.58423986e-002 9.58866719e-003 1.54468603e-002
      9.23781283e-003 1.80660132e-002 1.92531329e-002 5.94044290e-003
      1.83392353e-002 2.14780234e-002 2.79613454e-002 2.03601345e-002
      7.87576009e-003 2.55666114e-003 6.44613244e-003 1.27130356e-002
      1.27129080e-002 2.02147868e-002 2.15781890e-002 4.70599756e-002
      7.80373290e-002 8.81791487e-002 1.86611898e-002 1.06247766e-002
      1.30099440e-002 1.93229206e-002 2.83714645e-002 1.61094870e-002
      2.84099970e-002 1.27748519e-001 2.22679690e-001 1.69272050e-001
      5.11342399e-002 3.17862555e-002 2.28151605e-002 1.17596686e-001
      1.32252991e-001 6.78334385e-002 4.50614654e-002 6.54336661e-002
      5.49444146e-002 3.08296718e-002 2.52809264e-002 4.03745174e-002
      1.61289424e-002 6.97944015e-002 6.60147294e-002 4.83276471e-002
      5.74802347e-002 1.56663153e-002 5.02883270e-003 5.05556725e-003
      3.27696255e-003 1.34367880e-003 1.45023095e-003 4.34291502e-003
      3.06299012e-002 1.13808855e-001 2.87758578e-002 1.00629246e-002
      2.55604321e-003 1.54309685e-003 1.23281870e-003 2.45442963e-003
      1.06449807e-002 3.02996356e-002 6.20220788e-002 7.14747459e-002
      4.57951687e-002 5.24790958e-003 1.65645254e-003 6.56769471e-003
      1.05320076e-002 5.44258617e-002 7.14113340e-002 6.82206899e-002
      3.73443253e-002 6.93725189e-003 1.02518068e-003 3.70186428e-003
      1.88182723e-002 3.30003463e-002 1.12855583e-001 1.36663750e-001
      1.07029960e-001 3.25084366e-002 5.79506299e-003 7.46365963e-003
      1.35409860e-002 4.10029888e-002 2.95333341e-002 4.80679534e-002
      6.54261336e-002 1.47085220e-001 1.56864807e-001 5.89797497e-002
      3.17147784e-002 3.07398811e-002 1.00056596e-001 9.02558118e-002
      4.98740487e-002 4.36066277e-002 7.55899251e-002 9.94486213e-002
      8.60033408e-002 4.09649834e-002 4.66910303e-002 2.41403393e-002
      3.45021971e-002 1.46199679e-002 1.10627022e-002 2.56990548e-002
      2.26378478e-002 1.44429607e-002 1.37035903e-002 1.74217969e-002
      9.61893180e-004 3.01256281e-004 1.85389281e-003 2.49677617e-002
      1.80501580e-001 2.34192759e-002 5.57404524e-003 6.85300445e-004
      9.61893180e-004 4.94626351e-003 1.73840718e-003 7.93087576e-003
      3.30426693e-002 1.31327733e-001 1.26284048e-001 2.93646604e-002
      3.39107937e-003 4.78501292e-003 9.03017726e-003 5.91701968e-003
      1.21757314e-002 7.68339708e-002 1.82871491e-001 5.83658963e-002
      9.93476808e-003 1.78967393e-003 7.33967638e-003 2.14004191e-003
      5.17368456e-003 4.05852720e-002 1.43662423e-001 2.00317189e-001
      6.04672693e-002 3.60836126e-002 2.06954665e-002 6.97509805e-003
      3.37407067e-002 2.63269767e-002 9.68779251e-002 1.19695120e-001
      1.67538285e-001 7.30531961e-002 3.81657369e-002 4.03445475e-002
      2.78561953e-002 2.89486833e-002 2.69205309e-002 4.96993400e-002
      6.21599406e-002 9.46001187e-002 6.82282224e-002 6.17618784e-002
      3.91145125e-002 5.65778725e-002 6.84364885e-003 4.06448351e-004
      9.00380779e-004 1.91829633e-002 5.39317727e-002 4.57787663e-002
      1.97378341e-002 1.61301401e-002 2.08961833e-002 8.10597732e-004
      9.39131831e-004 3.30817071e-003 4.57368456e-002 1.71555325e-001
      2.62835659e-002 1.28081581e-002 1.15171529e-003 8.10597732e-004
      1.49392872e-003 6.60409732e-003 1.46359513e-002 3.99536006e-002
      1.07889913e-001 8.37410241e-002 4.48603779e-002 1.07642971e-002
      2.79658660e-003 5.66711836e-003 5.83064649e-003 1.21506313e-002
      5.13701588e-002 9.62213129e-002 5.64834736e-002 3.51635478e-002
      1.68926176e-002 7.88707566e-003 7.88260065e-003 2.30770418e-003
      6.43700222e-003 5.01881242e-002 1.23387262e-001 9.50246081e-002
      6.45309761e-002 4.08171192e-002 2.84392796e-002 1.76893510e-002
      7.67320441e-003 2.96554584e-002 3.65099087e-002 1.41288951e-001
      1.90035507e-001 1.23947121e-001 2.77343336e-002 1.58601645e-002
      7.67432228e-002 2.48139575e-002 3.63423303e-002 1.82191189e-002
      4.65937592e-002 8.36783871e-002 5.89908622e-002 4.19810340e-002
      6.01522140e-002 5.38348872e-003 2.33687647e-003 9.18655843e-003
      1.45908063e-002 4.13391516e-002 5.52918650e-002 1.02281356e-002
      8.54822714e-003 5.70850633e-003 4.77962196e-004 6.43526437e-004
      1.86649081e-003 2.08411943e-002 1.15204744e-001 2.53692791e-002
